{"learner":{"attributes":{"scikit_learn":"{\"_estimator_type\": \"classifier\"}"},"feature_names":["V1","V2","V3","V4","V5","V6","V7","V8","V9","V10","V11","V12","V13","V14","V15","V16","V17","V18","V19","V20","V21","V22","V23","V24","V25","V26","V27","V28","scaled_amount","scaled_time"],"feature_types":["float","float","float","float","float","float","float","float","float","float","float","float","float","float","float","float","float","float","float","float","float","float","float","float","float","float","float","float","float","float"],"gradient_booster":{"model":{"cats":{"enc":[],"feature_segments":[],"sorted_idx":[]},"gbtree_model_param":{"num_parallel_tree":"1","num_trees":"100"},"iteration_indptr":[0,1,2,3,4,5,6,7,8,9,10,11,12,13,14,15,16,17,18,19,20,21,22,23,24,25,26,27,28,29,30,31,32,33,34,35,36,37,38,39,40,41,42,43,44,45,46,47,48,49,50,51,52,53,54,55,56,57,58,59,60,61,62,63,64,65,66,67,68,69,70,71,72,73,74,75,76,77,78,79,80,81,82,83,84,85,86,87,88,89,90,91,92,93,94,95,96,97,98,99,100],"tree_info":[0,0,0,0,0,0,0,0,0,0,0,0,0,0,0,0,0,0,0,0,0,0,0,0,0,0,0,0,0,0,0,0,0,0,0,0,0,0,0,0,0,0,0,0,0,0,0,0,0,0,0,0,0,0,0,0,0,0,0,0,0,0,0,0,0,0,0,0,0,0,0,0,0,0,0,0,0,0,0,0,0,0,0,0,0,0,0,0,0,0,0,0,0,0,0,0,0,0,0,0],"trees":[{"base_weights":[3.7567855E-9,1.8677614E0,-1.5291442E0,-1.1745955E0,1.9100101E0,-1.7436994E0,-1.5914012E-1,-1.9962406E-1,1.391178E0,1.9940666E0,1.1133674E0,5.9031356E-2,-1.801592E0,9.9655616E-1,-8.8805145E-1,1.92546E0,-1.9175258E-1,1.9954444E0,-1.880597E-1,1.3044035E0,-1.9928508E-1,1.0876938E0,-1.9964397E-1,-1.8321171E0,1.8793282E-1,1.3663454E0,-9.117731E-1,7.018799E-2,-1.6096143E0,-1.3846155E-1,1.9862375E-1,-1.68E-1,1.9959038E-1,1.6071817E-1,-3.5338204E-2,-1.9877112E-1,1.6075698E-1,-1.2928922E-1,-1.9102715E-1,1.578917E-1,-1.9935276E-1,1.75866E-1,3.1732883E-2,-1.9947334E-1,1.7720935E-1,7.941269E-2,-1.9965473E-1,-3.7421376E-2,-1.999112E-1],"categories":[],"categories_nodes":[],"categories_segments":[],"categories_sizes":[],"default_left":[0,0,0,0,0,0,0,0,0,0,0,0,0,0,0,0,0,0,0,0,0,0,0,0,0,0,0,0,0,0,0,0,0,0,0,0,0,0,0,0,0,0,0,0,0,0,0,0,0],"id":0,"left_children":[1,3,5,7,9,11,13,-1,15,17,19,21,23,25,27,29,-1,31,-1,33,-1,35,-1,37,39,41,43,45,47,-1,-1,-1,-1,-1,-1,-1,-1,-1,-1,-1,-1,-1,-1,-1,-1,-1,-1,-1,-1],"loss_changes":[3.2481444E5,6.5826562E3,1.8380531E4,1.4823263E3,3.3790625E3,5.642578E3,7.1344854E3,0E0,3.0566745E2,2.4757812E2,2.863745E3,3.561064E3,3.1815781E3,2.312854E3,3.5910322E3,3.2438354E1,0E0,8.0453125E1,0E0,2.2808193E3,0E0,1.7977693E3,0E0,2.1717188E3,2.4077856E3,1.1288833E3,1.550739E3,3.3408176E3,1.4248335E3,0E0,0E0,0E0,0E0,0E0,0E0,0E0,0E0,0E0,0E0,0E0,0E0,0E0,0E0,0E0,0E0,0E0,0E0,0E0,0E0],"parents":[2147483647,0,0,1,1,2,2,3,3,4,4,5,5,6,6,8,8,9,9,10,10,11,11,12,12,13,13,14,14,15,15,17,17,19,19,21,21,23,23,24,24,25,25,26,26,27,27,28,28],"right_children":[2,4,6,8,10,12,14,-1,16,18,20,22,24,26,28,30,-1,32,-1,34,-1,36,-1,38,40,42,44,46,48,-1,-1,-1,-1,-1,-1,-1,-1,-1,-1,-1,-1,-1,-1,-1,-1,-1,-1,-1,-1],"split_conditions":[-1.7860076E0,-4.8602003E-1,1.6205643E0,9.646025E-1,-1.4170201E0,-9.869141E-1,-2.2021064E-1,-1.9962406E-1,-1.0696722E0,5.7732815E-1,4.765332E-1,-7.517599E-2,2.4952333E0,3.694475E-1,1.066606E-1,8.844345E-1,-1.9175258E-1,-7.032178E-1,-1.880597E-1,5.222757E-1,-1.9928508E-1,3.1294696E-2,-1.9964397E-1,-8.0741286E-1,-5.366893E-1,-5.727098E-1,2.1793187E0,-4.4045914E-2,-6.870088E-1,-1.3846155E-1,1.9862375E-1,-1.68E-1,1.9959038E-1,1.6071817E-1,-3.5338204E-2,-1.9877112E-1,1.6075698E-1,-1.2928922E-1,-1.9102715E-1,1.578917E-1,-1.9935276E-1,1.75866E-1,3.1732883E-2,-1.9947334E-1,1.7720935E-1,7.941269E-2,-1.9965473E-1,-3.7421376E-2,-1.999112E-1],"split_indices":[13,3,3,29,11,19,7,0,6,9,25,11,6,12,5,10,0,10,0,14,0,27,0,13,25,11,16,11,17,0,0,0,0,0,0,0,0,0,0,0,0,0,0,0,0,0,0,0,0],"split_type":[0,0,0,0,0,0,0,0,0,0,0,0,0,0,0,0,0,0,0,0,0,0,0,0,0,0,0,0,0,0,0,0,0,0,0,0,0,0,0,0,0,0,0,0,0,0,0,0,0],"sum_hessian":[1.137255E5,5.1194344E4,6.2531156E4,7.008217E2,5.0493523E4,5.4063973E4,8.467186E3,5.31E2,1.698217E2,4.5672906E4,4.8206143E3,1.6821802E3,5.238179E4,3.274719E3,5.192467E3,1.465717E2,2.325E1,4.5657156E4,1.575E1,4.5418643E3,2.7875E2,1.1214302E3,5.6075E2,5.1590324E4,7.914651E2,2.7433972E3,5.313217E2,2.2308237E3,2.9616433E3,2.25E0,1.443217E2,5.25E0,4.5651906E4,3.8404707E3,7.0139343E2,1.6175E2,9.596802E2,6.5330737E3,4.505725E4,4.834651E2,3.08E2,1.9961821E3,7.472151E2,3.7875E2,1.525717E2,1.6525736E3,5.7825E2,7.1039343E2,2.25125E3],"tree_param":{"num_deleted":"0","num_feature":"30","num_nodes":"49","size_leaf_vector":"1"}},{"base_weights":[9.970663E-6,1.6977085E0,-1.3879414E0,-1.0684872E0,1.7361093E0,-1.583176E0,-1.4424996E-1,-1.8155853E-1,1.2638707E0,1.7520487E0,-1.915593E-1,5.3322975E-2,-1.6357579E0,9.0282243E-1,-8.044527E-1,1.7508596E0,-1.7495671E-1,1.7653862E0,-1.9967249E-1,9.859088E-1,-1.8157516E-1,-1.6634914E0,1.7032969E-1,1.2371228E0,-8.2865506E-1,2.4121177E-1,-1.3583614E0,-1.2931876E-1,1.8072122E-1,1.8146597E-1,1.2608734E-1,-1.9520657E-1,1.4648727E-1,-1.1686721E-1,-1.7355646E-1,1.4305384E-1,-1.8133147E-1,-2.0273148E-1,1.3481437E-1,-1.8143241E-1,1.6089813E-1,1.2644961E-1,-1.19087294E-1,-3.6348177E-3,-1.8325305E-1],"categories":[],"categories_nodes":[],"categories_segments":[],"categories_sizes":[],"default_left":[0,0,0,0,0,0,0,0,0,0,0,0,0,0,0,0,0,0,0,0,0,0,0,0,0,0,0,0,0,0,0,0,0,0,0,0,0,0,0,0,0,0,0,0,0],"id":1,"left_children":[1,3,5,7,9,11,13,-1,15,17,-1,19,21,23,25,27,-1,29,-1,31,-1,33,35,37,39,41,43,-1,-1,-1,-1,-1,-1,-1,-1,-1,-1,-1,-1,-1,-1,-1,-1,-1,-1],"loss_changes":[2.6563906E5,5.388375E3,1.5060328E4,1.2132091E3,2.9145469E3,4.6132344E3,5.819085E3,0E0,2.5134323E2,2.4933906E3,0E0,2.9124927E3,2.6019375E3,1.8852668E3,2.9904885E3,2.7407135E1,0E0,1.2312812E3,0E0,1.5714039E3,0E0,1.8223438E3,1.9685027E3,9.91728E2,1.2700743E3,2.62252E3,2.1155688E3,0E0,0E0,0E0,0E0,0E0,0E0,0E0,0E0,0E0,0E0,0E0,0E0,0E0,0E0,0E0,0E0,0E0,0E0],"parents":[2147483647,0,0,1,1,2,2,3,3,4,4,5,5,6,6,8,8,9,9,11,11,12,12,13,13,14,14,15,15,17,17,19,19,21,21,22,22,23,23,24,24,25,25,26,26],"right_children":[2,4,6,8,10,12,14,-1,16,18,-1,20,22,24,26,28,-1,30,-1,32,-1,34,36,38,40,42,44,-1,-1,-1,-1,-1,-1,-1,-1,-1,-1,-1,-1,-1,-1,-1,-1,-1,-1],"split_conditions":[-1.7860076E0,-4.8602003E-1,1.6205643E0,9.646025E-1,1.9942753E0,-9.869141E-1,-2.2021064E-1,-1.8155853E-1,-1.0696722E0,5.7732815E-1,-1.915593E-1,-7.517599E-2,2.4952333E0,3.694475E-1,-9.1406114E-2,8.844345E-1,-1.7495671E-1,-1.4170201E0,-1.9967249E-1,-2.1636945E-1,-1.8157516E-1,-8.0741286E-1,-5.366893E-1,-7.712861E-1,2.1793187E0,-1.3030021E-1,-6.870088E-1,-1.2931876E-1,1.8072122E-1,1.8146597E-1,1.2608734E-1,-1.9520657E-1,1.4648727E-1,-1.1686721E-1,-1.7355646E-1,1.4305384E-1,-1.8133147E-1,-2.0273148E-1,1.3481437E-1,-1.8143241E-1,1.6089813E-1,1.2644961E-1,-1.19087294E-1,-3.6348177E-3,-1.8325305E-1],"split_indices":[13,3,3,29,0,19,7,0,6,9,0,11,6,12,5,10,0,11,0,3,0,13,25,22,16,9,17,0,0,0,0,0,0,0,0,0,0,0,0,0,0,0,0,0,0],"split_type":[0,0,0,0,0,0,0,0,0,0,0,0,0,0,0,0,0,0,0,0,0,0,0,0,0,0,0,0,0,0,0,0,0,0,0,0,0,0,0,0,0,0,0,0,0],"sum_hessian":[1.1273258E5,5.0707965E4,6.2024617E4,6.9392926E2,5.0014035E4,5.360883E4,8.415789E3,5.257449E2,1.6818443E2,4.979719E4,2.1684167E2,1.6688688E3,5.1939957E4,3.2542407E3,5.161548E3,1.4514685E2,2.3037582E1,4.9621176E4,1.760143E2,1.1136693E3,5.551994E2,5.1154535E4,7.854245E2,2.7278535E3,5.263874E2,1.7875636E3,3.3739844E3,2.2392502E0,1.429076E2,4.5203734E4,4.4174424E3,1.5567569E2,9.5799365E2,6.5058486E3,4.4648688E4,4.8046442E2,3.0496005E2,8.915313E1,2.6387002E3,3.7500723E2,1.5138013E2,1.042658E3,7.449056E2,8.909728E2,2.4830115E3],"tree_param":{"num_deleted":"0","num_feature":"30","num_nodes":"45","size_leaf_vector":"1"}},{"base_weights":[6.071137E-5,1.5682253E0,-1.2773151E0,1.6748545E0,6.943168E-1,-1.4817357E0,-2.5368848E-1,-1.632749E-1,1.6773177E0,-7.510633E-2,1.5628797E0,-1.515889E0,2.5783435E-1,6.9629484E-1,-1.0158578E0,1.6784738E0,-1.5748014E-1,5.258034E-1,-1.9502426E0,1.6377679E0,-2.0430481E-1,-1.5624303E0,-4.4493335E-1,-1.770511E0,1.0870597E0,1.2538055E0,-4.2051926E-1,-1.6071626E0,8.107239E-3,-1.653338E-1,1.6789068E-1,1.1451816E-1,-1.8122889E-1,-1.6772817E-1,-2.1017814E-1,-1.9123815E-1,1.6780944E-1,-1.1415132E-1,-1.634682E-1,1.4678451E-1,-1.3614969E-1,-2.2068396E-1,-1.6906798E-1,1.5281801E-1,-1.6961905E-1,1.5017426E-1,-1.7912166E-1,9.933795E-2,-1.2529609E-1,-1.761023E-1,-4.1946545E-2,-1.7720242E-1,6.699171E-2],"categories":[],"categories_nodes":[],"categories_segments":[],"categories_sizes":[],"default_left":[0,0,0,0,0,0,0,0,0,0,0,0,0,0,0,0,0,0,0,0,0,0,0,0,0,0,0,0,0,0,0,0,0,0,0,0,0,0,0,0,0,0,0,0,0,0,0,0,0,0,0,0,0],"id":2,"left_children":[1,3,5,7,9,11,13,-1,15,17,19,21,23,25,27,29,-1,31,33,35,-1,37,39,41,43,45,47,49,51,-1,-1,-1,-1,-1,-1,-1,-1,-1,-1,-1,-1,-1,-1,-1,-1,-1,-1,-1,-1,-1,-1,-1,-1],"loss_changes":[2.2073928E5,4.608461E3,1.27071875E4,3.6192188E2,3.5962832E3,3.0078203E3,7.3209414E3,0E0,1.6830469E2,3.2172883E3,6.859463E2,2.4738047E3,1.6427539E3,2.8031052E3,3.3967266E3,6.628125E1,0E0,3.1336248E3,2.5137451E1,3.57813E2,0E0,1.4450391E3,3.6293503E3,6.1430664E0,8.5351764E2,2.2695942E3,1.7661697E3,6.4914453E2,2.4217944E3,0E0,0E0,0E0,0E0,0E0,0E0,0E0,0E0,0E0,0E0,0E0,0E0,0E0,0E0,0E0,0E0,0E0,0E0,0E0,0E0,0E0,0E0,0E0,0E0],"parents":[2147483647,0,0,1,1,2,2,3,3,4,4,5,5,6,6,8,8,9,9,10,10,11,11,12,12,13,13,14,14,15,15,17,17,18,18,19,19,21,21,22,22,23,23,24,24,25,25,26,26,27,27,28,28],"right_children":[2,4,6,8,10,12,14,-1,16,18,20,22,24,26,28,30,-1,32,34,36,-1,38,40,42,44,46,48,50,52,-1,-1,-1,-1,-1,-1,-1,-1,-1,-1,-1,-1,-1,-1,-1,-1,-1,-1,-1,-1,-1,-1,-1,-1],"split_conditions":[-1.7860076E0,-1.4170201E0,1.3934106E0,-4.9859717E-1,1.8989279E0,2.4952333E0,-5.5810237E-1,-1.632749E-1,5.7732815E-1,2.2412127E-2,2.0833054E-1,6.7719793E-1,2.3244013E-1,2.7778995E-1,9.417269E-2,-7.032178E-1,-1.5748014E-1,-1.1837303E-1,-4.8602003E-1,5.4119116E-1,-2.0430481E-1,-7.137033E-1,-1.317062E0,-5.366893E-1,-3.33678E-1,1.278389E0,-7.4036527E-1,1.2359401E0,1.358129E-1,-1.653338E-1,1.6789068E-1,1.1451816E-1,-1.8122889E-1,-1.6772817E-1,-2.1017814E-1,-1.9123815E-1,1.6780944E-1,-1.1415132E-1,-1.634682E-1,1.4678451E-1,-1.3614969E-1,-2.2068396E-1,-1.6906798E-1,1.5281801E-1,-1.6961905E-1,1.5017426E-1,-1.7912166E-1,9.933795E-2,-1.2529609E-1,-1.761023E-1,-4.1946545E-2,-1.7720242E-1,6.699171E-2],"split_indices":[13,11,3,3,3,6,11,0,9,26,22,20,14,13,27,10,0,25,3,17,0,18,12,25,25,2,6,11,23,0,0,0,0,0,0,0,0,0,0,0,0,0,0,0,0,0,0,0,0,0,0,0,0],"split_type":[0,0,0,0,0,0,0,0,0,0,0,0,0,0,0,0,0,0,0,0,0,0,0,0,0,0,0,0,0,0,0,0,0,0,0,0,0,0,0,0,0,0,0,0,0,0,0,0,0,0,0,0,0],"sum_hessian":[1.1019487E5,4.9466867E4,6.0728E4,4.4086742E4,5.380126E3,5.061885E4,1.0109147E4,3.231392E1,4.405443E4,2.8533647E3,2.5267615E3,4.9644305E4,9.7454865E2,4.5001523E3,5.6089946E3,4.4039254E4,1.5172573E1,2.1614287E3,6.91936E2,2.475888E3,5.0873665E1,4.7576293E4,2.0680095E3,2.824704E2,6.9207825E2,3.001626E3,1.4985265E3,3.5553389E3,2.0536558E3,5.226068E0,4.403403E4,1.7091676E3,4.5226108E2,2.5131688E2,4.4061908E2,2.7286549E1,2.4486013E3,6.9726274E3,4.0603668E4,6.6973553E2,1.398274E3,3.9567104E1,2.4290329E2,5.977855E2,9.429273E1,2.7760928E3,2.25533E2,5.552475E2,9.43279E2,3.1471572E3,4.0818155E2,5.561229E2,1.497533E3],"tree_param":{"num_deleted":"0","num_feature":"30","num_nodes":"53","size_leaf_vector":"1"}},{"base_weights":[1.584E-4,1.4668742E0,-1.1866777E0,1.5693454E0,6.400866E-1,-1.3793167E0,-2.3365498E-1,-1.5311722E-1,1.5716584E0,-6.902167E-2,1.451361E0,-2.5829542E-2,-1.4203167E0,6.383073E-1,-9.362041E-1,1.5727465E0,-1.4786826E-1,4.8137283E-1,-1.7827717E0,1.5217187E0,-1.8518367E-1,-1.6547958E0,1.1682651E0,-1.4453455E0,1.7551018E-1,1.1528589E0,-3.8332582E-1,-1.4915338E0,6.6419523E-3,-1.5276718E-1,1.5731613E-1,1.04602315E-1,-1.6799526E-1,-1.5718476E-1,-1.8949287E-1,1.5612145E-1,-1.8793282E-1,-1.7909302E-1,-1.5935637E-1,-1.6214502E-1,1.540885E-1,-1.11220494E-1,-1.5470761E-1,1.2296619E-1,-1.5818769E-1,1.379902E-1,-1.6645545E-1,9.560498E-2,-1.16302766E-1,-1.6463372E-1,-3.3563904E-2,-1.6483338E-1,6.0375035E-2],"categories":[],"categories_nodes":[],"categories_segments":[],"categories_sizes":[],"default_left":[0,0,0,0,0,0,0,0,0,0,0,0,0,0,0,0,0,0,0,0,0,0,0,0,0,0,0,0,0,0,0,0,0,0,0,0,0,0,0,0,0,0,0,0,0,0,0,0,0,0,0,0,0],"id":3,"left_children":[1,3,5,7,9,11,13,-1,15,17,19,21,23,25,27,29,-1,31,33,35,-1,37,39,41,43,45,47,49,51,-1,-1,-1,-1,-1,-1,-1,-1,-1,-1,-1,-1,-1,-1,-1,-1,-1,-1,-1,-1,-1,-1,-1,-1],"loss_changes":[1.8560931E5,4.0393594E3,1.0819719E4,3.0670312E2,3.0263892E3,2.7205625E3,6.0721016E3,0E0,1.4305469E2,2.6494448E3,5.730405E2,2.8077122E3,1.9008594E3,2.3255073E3,2.874082E3,5.690625E1,0E0,2.5965132E3,1.3174316E1,3.2571436E2,0E0,2.2353516E0,8.683154E2,1.5860391E3,1.3648254E3,1.884032E3,1.5490287E3,6.1758154E2,2.0126404E3,0E0,0E0,0E0,0E0,0E0,0E0,0E0,0E0,0E0,0E0,0E0,0E0,0E0,0E0,0E0,0E0,0E0,0E0,0E0,0E0,0E0,0E0,0E0,0E0],"parents":[2147483647,0,0,1,1,2,2,3,3,4,4,5,5,6,6,8,8,9,9,10,10,11,11,12,12,13,13,14,14,15,15,17,17,18,18,19,19,21,21,22,22,23,23,24,24,25,25,26,26,27,27,28,28],"right_children":[2,4,6,8,10,12,14,-1,16,18,20,22,24,26,28,30,-1,32,34,36,-1,38,40,42,44,46,48,50,52,-1,-1,-1,-1,-1,-1,-1,-1,-1,-1,-1,-1,-1,-1,-1,-1,-1,-1,-1,-1,-1,-1,-1,-1],"split_conditions":[-1.7860076E0,-1.4170201E0,1.3934106E0,-4.9859717E-1,1.8989279E0,-9.869141E-1,-5.5810237E-1,-1.5311722E-1,5.7732815E-1,2.2412127E-2,2.0833054E-1,-2.0286586E0,2.4952333E0,2.7778995E-1,9.417269E-2,-7.032178E-1,-1.4786826E-1,-1.1837303E-1,-4.8602003E-1,5.062361E-1,-1.8518367E-1,-8.321914E-2,-2.1636945E-1,-4.6620575E-1,-5.366893E-1,1.278389E0,-2.5221828E-1,1.1070737E0,1.358129E-1,-1.5276718E-1,1.5731613E-1,1.04602315E-1,-1.6799526E-1,-1.5718476E-1,-1.8949287E-1,1.5612145E-1,-1.8793282E-1,-1.7909302E-1,-1.5935637E-1,-1.6214502E-1,1.540885E-1,-1.11220494E-1,-1.5470761E-1,1.2296619E-1,-1.5818769E-1,1.379902E-1,-1.6645545E-1,9.560498E-2,-1.16302766E-1,-1.6463372E-1,-3.3563904E-2,-1.6483338E-1,6.0375035E-2],"split_indices":[13,11,3,3,3,19,11,0,9,26,22,0,6,13,27,10,0,25,3,18,0,11,3,13,25,2,28,10,23,0,0,0,0,0,0,0,0,0,0,0,0,0,0,0,0,0,0,0,0,0,0,0,0],"split_type":[0,0,0,0,0,0,0,0,0,0,0,0,0,0,0,0,0,0,0,0,0,0,0,0,0,0,0,0,0,0,0,0,0,0,0,0,0,0,0,0,0,0,0,0,0,0,0,0,0,0,0,0,0],"sum_hessian":[1.0662397E5,4.768887E4,5.8935098E4,4.2429332E4,5.259537E3,4.9024996E4,9.910102E3,3.1137716E1,4.2398195E4,2.806971E3,2.4525662E3,1.4414562E3,4.758354E4,4.421942E3,5.48816E3,4.2383562E4,1.4635189E1,2.1251643E3,6.8180676E2,2.4019443E3,5.0621857E1,6.0954205E2,8.3191406E2,4.6848863E4,7.346769E2,2.940708E3,1.4812336E3,3.4534941E3,2.0346661E3,5.1747766E0,4.2378387E4,1.6853734E3,4.3979086E2,2.4190031E2,4.3990643E2,2.374906E3,2.7038416E1,1.8034386E2,4.291982E2,9.763004E1,7.3428406E2,1.0962277E4,3.5886586E4,4.594066E2,2.7527032E2,2.7218743E3,2.188338E2,5.449278E2,9.3630585E2,3.0452363E3,4.0825784E2,5.389963E2,1.4956698E3],"tree_param":{"num_deleted":"0","num_feature":"30","num_nodes":"53","size_leaf_vector":"1"}},{"base_weights":[2.5972797E-4,1.3856856E0,-1.1120617E0,1.4852438E0,5.954235E-1,-1.3927127E0,-5.0417763E-1,-1.4492196E-1,1.4874384E0,-6.4310744E-2,1.3618307E0,-1.4486175E0,-6.239004E-1,4.465933E-1,-9.644748E-1,1.4884735E0,-1.4000332E-1,4.431877E-1,-1.6556282E0,-1.749463E-1,1.4282463E0,-1.4636742E0,-5.065851E-2,5.1712894E-1,-1.5219432E-1,1.4511868E0,-9.320268E-2,1.26517E-1,-1.2077577E0,-1.4256816E-1,1.4888744E-1,-1.0683723E-1,1.1743454E-1,-1.4877757E-1,-1.7417559E-1,-1.957464E-1,1.4678879E-1,-9.418524E-2,-1.5054289E-1,-1.5163279E-1,2.455159E-1,-7.626591E-2,1.526241E-1,1.5292421E-1,-1.5787724E-1,-8.061993E-2,8.145752E-2,-1.5335701E-1,6.4307205E-2,-1.3350219E-1,8.675175E-2],"categories":[],"categories_nodes":[],"categories_segments":[],"categories_sizes":[],"default_left":[0,0,0,0,0,0,0,0,0,0,0,0,0,0,0,0,0,0,0,0,0,0,0,0,0,0,0,0,0,0,0,0,0,0,0,0,0,0,0,0,0,0,0,0,0,0,0,0,0,0,0],"id":4,"left_children":[1,3,5,7,9,11,13,-1,15,17,19,21,23,25,27,29,-1,31,33,-1,35,37,39,41,-1,43,45,47,49,-1,-1,-1,-1,-1,-1,-1,-1,-1,-1,-1,-1,-1,-1,-1,-1,-1,-1,-1,-1,-1,-1],"loss_changes":[1.5761488E5,3.5826719E3,9.677742E3,2.6266406E2,2.5776604E3,1.6672266E3,7.8430747E3,0E0,1.22890625E2,2.2139412E3,4.8981152E2,7.6146094E2,2.698442E3,3.170502E3,3.2050986E3,4.9328125E1,0E0,2.2985366E3,6.991577E0,0E0,3.1284912E2,7.7847656E2,1.4234313E3,1.499516E3,0E0,4.8571045E2,2.462709E3,1.8897599E3,2.6088145E3,0E0,0E0,0E0,0E0,0E0,0E0,0E0,0E0,0E0,0E0,0E0,0E0,0E0,0E0,0E0,0E0,0E0,0E0,0E0,0E0,0E0,0E0],"parents":[2147483647,0,0,1,1,2,2,3,3,4,4,5,5,6,6,8,8,9,9,10,10,11,11,12,12,13,13,14,14,15,15,17,17,18,18,20,20,21,21,22,22,23,23,25,25,26,26,27,27,28,28],"right_children":[2,4,6,8,10,12,14,-1,16,18,20,22,24,26,28,30,-1,32,34,-1,36,38,40,42,-1,44,46,48,50,-1,-1,-1,-1,-1,-1,-1,-1,-1,-1,-1,-1,-1,-1,-1,-1,-1,-1,-1,-1,-1,-1],"split_conditions":[-1.7860076E0,-1.4170201E0,7.4178904E-1,-4.9859717E-1,1.8989279E0,4.164047E0,-5.5810237E-1,-1.4492196E-1,5.7732815E-1,2.2412127E-2,5.4119116E-1,1.2048786E0,-3.33678E-1,-7.241427E-1,-2.8254035E-1,-7.032178E-1,-1.4000332E-1,-2.0117074E-2,-4.8602003E-1,-1.749463E-1,-8.742564E-1,-1.3304758E0,1.3461169E0,4.4095386E-2,-1.5219432E-1,1.2195847E0,5.4712725E-1,9.910479E-3,1.6197767E0,-1.4256816E-1,1.4888744E-1,-1.0683723E-1,1.1743454E-1,-1.4877757E-1,-1.7417559E-1,-1.957464E-1,1.4678879E-1,-9.418524E-2,-1.5054289E-1,-1.5163279E-1,2.455159E-1,-7.626591E-2,1.526241E-1,1.5292421E-1,-1.5787724E-1,-8.061993E-2,8.145752E-2,-1.5335701E-1,6.4307205E-2,-1.3350219E-1,8.675175E-2],"split_indices":[13,11,3,3,3,28,11,0,9,26,17,25,25,13,28,10,0,26,3,0,21,5,11,3,0,2,21,27,16,0,0,0,0,0,0,0,0,0,0,0,0,0,0,0,0,0,0,0,0,0,0],"split_type":[0,0,0,0,0,0,0,0,0,0,0,0,0,0,0,0,0,0,0,0,0,0,0,0,0,0,0,0,0,0,0,0,0,0,0,0,0,0,0,0,0,0,0,0,0,0,0,0,0,0,0],"sum_hessian":[1.0227633E5,4.5546594E4,5.6729734E4,4.0449797E4,5.0967935E3,3.881031E4,1.7919426E4,2.9736942E1,4.0420062E4,2.739505E3,2.3572888E3,3.617866E4,2.6316462E3,5.8454126E3,1.2074014E4,4.0406062E4,1.400031E1,2.0776333E3,6.6187146E2,4.8738747E1,2.30855E3,3.5793105E4,3.8555713E2,1.1592095E3,1.4724366E3,2.0425021E3,3.8029104E3,2.201584E3,9.87243E3,5.0672727E0,4.0400992E4,6.7718744E2,1.4004458E3,2.3064523E2,4.3122623E2,2.6156979E1,2.282393E3,2.653606E3,3.31395E4,2.4351718E2,1.4203995E2,5.1117072E2,6.4803876E2,1.9916892E3,5.0812893E1,2.1300308E3,1.6728796E3,5.220069E2,1.679577E3,9.30233E3,5.7009955E2],"tree_param":{"num_deleted":"0","num_feature":"30","num_nodes":"51","size_leaf_vector":"1"}},{"base_weights":[3.0690734E-4,1.3189005E0,-1.046707E0,1.4168643E0,5.5655426E-1,-1.319736E0,-4.6774617E-1,-1.3817722E-1,1.4189638E0,-5.9662096E-2,1.2878137E0,-1.3925428E0,-7.21123E-1,4.0954268E-1,-8.9911574E-1,1.4199568E0,-1.3344117E-1,4.4938797E-1,-1.5333654E0,1.3532256E0,-1.6544196E-1,-3.479676E-1,-1.4163476E0,-1.3222494E0,7.305515E-1,9.365749E-1,-4.86907E-1,1.1320446E-1,-1.1327443E0,1.4202634E-1,-2.290026E-1,9.1534935E-2,-1.6028477E-1,-1.438349E-1,-1.5899308E-1,-2.1845682E-1,1.3907114E-1,-1.4800999E-1,1.07269704E-1,-1.4326508E-1,-4.685087E-3,-3.592518E-3,-1.4653485E-1,1.4848407E-1,-1.4799015E-1,1.1684829E-1,-1.5382592E-1,9.4578825E-2,-1.2276941E-1,-1.4580007E-1,5.7293385E-2,-1.4146887E-1,-2.896062E-2],"categories":[],"categories_nodes":[],"categories_segments":[],"categories_sizes":[],"default_left":[0,0,0,0,0,0,0,0,0,0,0,0,0,0,0,0,0,0,0,0,0,0,0,0,0,0,0,0,0,0,0,0,0,0,0,0,0,0,0,0,0,0,0,0,0,0,0,0,0,0,0,0,0],"id":5,"left_children":[1,3,5,7,9,11,13,-1,15,17,19,21,23,25,27,29,-1,31,33,35,-1,37,39,41,43,45,47,49,51,-1,-1,-1,-1,-1,-1,-1,-1,-1,-1,-1,-1,-1,-1,-1,-1,-1,-1,-1,-1,-1,-1,-1,-1],"loss_changes":[1.347323E5,3.2250078E3,8.598109E3,2.2684375E2,2.217144E3,1.6100312E3,6.597903E3,0E0,1.0646875E2,2.0044718E3,4.352793E2,8.1896484E2,3.5006028E3,2.7158179E3,2.7642754E3,4.6726562E1,0E0,1.900654E3,1.4000244E0,2.9501807E2,0E0,1.1847183E3,7.193242E2,5.220449E2,1.9613318E3,2.0792996E3,2.2602395E3,1.5844825E3,2.2569531E3,0E0,0E0,0E0,0E0,0E0,0E0,0E0,0E0,0E0,0E0,0E0,0E0,0E0,0E0,0E0,0E0,0E0,0E0,0E0,0E0,0E0,0E0,0E0,0E0],"parents":[2147483647,0,0,1,1,2,2,3,3,4,4,5,5,6,6,8,8,9,9,10,10,11,11,12,12,13,13,14,14,15,15,17,17,18,18,19,19,21,21,22,22,23,23,24,24,25,25,26,26,27,27,28,28],"right_children":[2,4,6,8,10,12,14,-1,16,18,20,22,24,26,28,30,-1,32,34,36,-1,38,40,42,44,46,48,50,52,-1,-1,-1,-1,-1,-1,-1,-1,-1,-1,-1,-1,-1,-1,-1,-1,-1,-1,-1,-1,-1,-1,-1,-1],"split_conditions":[-1.7860076E0,-1.4170201E0,7.4178904E-1,-4.9859717E-1,1.8989279E0,1.066889E0,-5.5810237E-1,-1.3817722E-1,5.7732815E-1,-1.1837303E-1,2.0833054E-1,-9.869141E-1,1.543942E-1,3.4096313E-1,-2.8254035E-1,1.9894891E0,-1.3344117E-1,2.2412127E-2,-4.8602003E-1,-6.660175E-2,-1.6544196E-1,-1.7452211E0,1.2048786E0,-1.6803147E0,-2.6301304E-1,1.278389E0,-7.4036527E-1,9.910479E-3,5.5452347E-1,1.4202634E-1,-2.290026E-1,9.1534935E-2,-1.6028477E-1,-1.438349E-1,-1.5899308E-1,-2.1845682E-1,1.3907114E-1,-1.4800999E-1,1.07269704E-1,-1.4326508E-1,-4.685087E-3,-3.592518E-3,-1.4653485E-1,1.4848407E-1,-1.4799015E-1,1.1684829E-1,-1.5382592E-1,9.4578825E-2,-1.2276941E-1,-1.4580007E-1,5.7293385E-2,-1.4146887E-1,-2.896062E-2],"split_indices":[13,11,3,3,3,6,11,0,9,25,22,19,3,13,28,6,0,26,3,10,0,0,25,9,12,2,6,27,16,0,0,0,0,0,0,0,0,0,0,0,0,0,0,0,0,0,0,0,0,0,0,0,0],"split_type":[0,0,0,0,0,0,0,0,0,0,0,0,0,0,0,0,0,0,0,0,0,0,0,0,0,0,0,0,0,0,0,0,0,0,0,0,0,0,0,0,0,0,0,0,0,0,0,0,0,0,0,0,0],"sum_hessian":[9.758868E4,4.3192473E4,5.4396207E4,3.8273367E4,4.9191025E3,3.696351E4,1.74327E4,2.8197577E1,3.824517E4,2.670038E3,2.2490645E3,3.295411E4,4.0094019E3,5.7463105E3,1.1686388E4,3.8231867E4,1.3304869E1,1.9850518E3,6.849862E2,2.200679E3,4.8385536E1,7.346038E2,3.2219504E4,2.8353826E3,1.1740193E3,3.618759E3,2.1275513E3,2.1914175E3,9.494971E3,3.8229324E4,2.5406313E0,1.6181938E3,3.6685794E2,2.6547696E2,4.1950925E2,2.2472925E1,2.1782058E3,4.0879327E2,3.2581052E2,3.1840414E4,3.7908957E2,2.8397424E2,2.5514082E3,8.7557025E2,2.9844904E2,3.309194E3,3.0956512E2,7.25038E2,1.4025132E3,4.9556537E2,1.6958522E3,7.115034E3,2.3799365E3],"tree_param":{"num_deleted":"0","num_feature":"30","num_nodes":"53","size_leaf_vector":"1"}},{"base_weights":[2.2526013E-4,1.2634033E0,-9.9147695E-1,1.3618412E0,5.3109884E-1,-1.2591738E0,-4.3651E-1,-1.4495939E-1,1.3641688E0,-1.7738019E-1,1.223396E0,-1.3316256E0,-6.7619264E-1,3.7917215E-1,-8.4050244E-1,1.3650582E0,-1.7057028E-1,5.3815347E-1,-1.2215533E0,1.2759082E0,-1.5767556E-1,-3.2780153E-1,-1.3549204E0,-1.2578813E0,6.534245E-1,1.28079E0,-9.2191845E-2,1.01509705E-1,-1.0654063E0,-1.5524717E-1,1.3658866E-1,-1.6638935E-1,1.0012789E-1,-1.6124298E-1,7.048124E-2,1.303181E-1,-2.3523842E-1,-1.4145425E-1,9.84834E-2,-1.3714682E-1,-4.223778E-3,-1.4083824E-1,-1.3165263E-3,1.6740279E-1,-7.766494E-2,-1.739907E-1,1.3506119E-1,-7.295993E-2,7.146525E-2,7.7676915E-2,-8.859025E-2,3.2179534E-2,-1.2452531E-1],"categories":[],"categories_nodes":[],"categories_segments":[],"categories_sizes":[],"default_left":[0,0,0,0,0,0,0,0,0,0,0,0,0,0,0,0,0,0,0,0,0,0,0,0,0,0,0,0,0,0,0,0,0,0,0,0,0,0,0,0,0,0,0,0,0,0,0,0,0,0,0,0,0],"id":6,"left_children":[1,3,5,7,9,11,13,-1,15,17,19,21,23,25,27,29,-1,31,33,35,-1,37,39,41,43,45,47,49,51,-1,-1,-1,-1,-1,-1,-1,-1,-1,-1,-1,-1,-1,-1,-1,-1,-1,-1,-1,-1,-1,-1,-1,-1],"loss_changes":[1.1595931E5,2.9340273E3,7.7033633E3,2.3682031E2,2.3671194E3,1.4766484E3,5.5613516E3,0E0,1.0022656E2,1.7832258E3,3.6092017E2,7.271133E2,2.99312E3,2.375989E3,2.3912407E3,8.8765625E1,0E0,1.4461538E3,7.3185205E2,2.4020654E2,0E0,1.00987994E3,6.6045703E2,5.0423486E2,1.7208162E3,4.071577E2,1.8890297E3,1.4516597E3,2.2734746E3,0E0,0E0,0E0,0E0,0E0,0E0,0E0,0E0,0E0,0E0,0E0,0E0,0E0,0E0,0E0,0E0,0E0,0E0,0E0,0E0,0E0,0E0,0E0,0E0],"parents":[2147483647,0,0,1,1,2,2,3,3,4,4,5,5,6,6,8,8,9,9,10,10,11,11,12,12,13,13,14,14,15,15,17,17,18,18,19,19,21,21,22,22,23,23,24,24,25,25,26,26,27,27,28,28],"right_children":[2,4,6,8,10,12,14,-1,16,18,20,22,24,26,28,30,-1,32,34,36,-1,38,40,42,44,46,48,50,52,-1,-1,-1,-1,-1,-1,-1,-1,-1,-1,-1,-1,-1,-1,-1,-1,-1,-1,-1,-1,-1,-1,-1,-1],"split_conditions":[-1.7860076E0,-1.7701555E0,7.4178904E-1,-4.8602003E-1,2.1824439E0,1.066889E0,-5.5810237E-1,-1.4495939E-1,3.1606987E-1,-1.1755707E-1,5.7732815E-1,-9.869141E-1,1.543942E-1,-7.241427E-1,-2.8254035E-1,-4.8507175E-1,-1.7057028E-1,5.639164E-2,9.646025E-1,7.382561E-1,-1.5767556E-1,-1.7452211E0,1.2048786E0,8.8191885E-1,-7.0394987E-1,-9.9650687E-1,5.4712725E-1,-4.2496997E-1,-6.041179E-1,-1.5524717E-1,1.3658866E-1,-1.6638935E-1,1.0012789E-1,-1.6124298E-1,7.048124E-2,1.303181E-1,-2.3523842E-1,-1.4145425E-1,9.84834E-2,-1.3714682E-1,-4.223778E-3,-1.4083824E-1,-1.3165263E-3,1.6740279E-1,-7.766494E-2,-1.739907E-1,1.3506119E-1,-7.295993E-2,7.146525E-2,7.7676915E-2,-8.859025E-2,3.2179534E-2,-1.2452531E-1],"split_indices":[13,9,3,3,3,6,11,0,11,21,9,19,3,13,28,10,0,29,29,12,0,0,25,14,9,10,21,8,7,0,0,0,0,0,0,0,0,0,0,0,0,0,0,0,0,0,0,0,0,0,0,0,0],"split_type":[0,0,0,0,0,0,0,0,0,0,0,0,0,0,0,0,0,0,0,0,0,0,0,0,0,0,0,0,0,0,0,0,0,0,0,0,0,0,0,0,0,0,0,0,0,0,0,0,0,0,0,0,0],"sum_hessian":[9.256577E4,4.0710547E4,5.1855227E4,3.588584E4,4.8247056E3,3.4980547E4,1.6874676E4,2.9171637E1,3.5856668E4,2.3848525E3,2.4398528E3,3.1112646E4,3.8679019E3,5.589414E3,1.1285262E4,3.584684E4,9.829407E0,1.4154092E3,9.694435E2,2.395474E3,4.4378838E1,7.059686E2,3.0406678E4,2.6907786E3,1.1771234E3,1.918335E3,3.671079E3,2.1751548E3,9.110107E3,9.643788E0,3.5837195E4,2.4550424E2,1.1699049E3,8.060516E2,1.633919E2,2.3782383E3,1.7235748E1,3.8617432E2,3.1979428E2,3.0028098E4,3.7858078E2,2.400409E3,2.9036957E2,6.8680176E2,4.9032162E2,4.2799107E1,1.8755359E3,2.050935E3,1.6201442E3,1.2918877E3,8.832671E2,1.0454568E3,8.0646504E3],"tree_param":{"num_deleted":"0","num_feature":"30","num_nodes":"53","size_leaf_vector":"1"}},{"base_weights":[2.0293011E-4,1.2163104E0,-9.419407E-1,1.3131567E0,4.9185297E-1,-1.2071253E0,-4.07051E-1,-1.28107E-1,1.3151194E0,-5.7665877E-2,1.17045E0,-1.2802614E0,-6.341294E-1,3.4949192E-1,-7.8780574E-1,1.3160415E0,-1.2258319E-1,3.9166212E-1,-1.4136742E0,1.2342887E0,-1.5613735E-1,-3.1019336E-1,-1.3032125E0,-1.2020174E0,5.808845E-1,1.203719E0,-8.401778E-2,9.144302E-2,-1.0055424E0,-1.4299694E-1,1.3164954E-1,7.961471E-2,-1.4596212E-1,-1.3375442E-1,-1.4569823E-1,-1.9470082E-1,1.2724541E-1,-1.3601322E-1,9.066432E-2,-1.3201919E-1,-3.8074013E-3,-1.3550876E-1,4.6418384E-3,1.19537376E-1,-1.4170535E-1,1.2614745E-1,-2.0352538E-1,4.415737E-2,-9.5403805E-2,4.5600448E-2,-1.5538113E-1,-1.5462078E-2,-1.3120033E-1],"categories":[],"categories_nodes":[],"categories_segments":[],"categories_sizes":[],"default_left":[0,0,0,0,0,0,0,0,0,0,0,0,0,0,0,0,0,0,0,0,0,0,0,0,0,0,0,0,0,0,0,0,0,0,0,0,0,0,0,0,0,0,0,0,0,0,0,0,0,0,0,0,0],"id":7,"left_children":[1,3,5,7,9,11,13,-1,15,17,19,21,23,25,27,29,-1,31,33,35,-1,37,39,41,43,45,47,49,51,-1,-1,-1,-1,-1,-1,-1,-1,-1,-1,-1,-1,-1,-1,-1,-1,-1,-1,-1,-1,-1,-1,-1,-1],"loss_changes":[1.002395E5,2.6788984E3,6.992004E3,1.7321094E2,1.6800059E3,1.3803008E3,4.707411E3,0E0,8.048047E1,1.5178258E3,3.5347852E2,6.5028125E2,2.576025E3,2.0262727E3,2.0811914E3,4.3828125E1,0E0,1.4023579E3,9.5458984E-2,2.4170776E2,0E0,8.658972E2,6.132344E2,4.8619507E2,1.4620748E3,3.4714868E2,1.6605422E3,1.2954061E3,2.2719072E3,0E0,0E0,0E0,0E0,0E0,0E0,0E0,0E0,0E0,0E0,0E0,0E0,0E0,0E0,0E0,0E0,0E0,0E0,0E0,0E0,0E0,0E0,0E0,0E0],"parents":[2147483647,0,0,1,1,2,2,3,3,4,4,5,5,6,6,8,8,9,9,10,10,11,11,12,12,13,13,14,14,15,15,17,17,18,18,19,19,21,21,22,22,23,23,24,24,25,25,26,26,27,27,28,28],"right_children":[2,4,6,8,10,12,14,-1,16,18,20,22,24,26,28,30,-1,32,34,36,-1,38,40,42,44,46,48,50,52,-1,-1,-1,-1,-1,-1,-1,-1,-1,-1,-1,-1,-1,-1,-1,-1,-1,-1,-1,-1,-1,-1,-1,-1],"split_conditions":[-1.7860076E0,-1.4170201E0,7.4178904E-1,-4.9859717E-1,1.8989279E0,1.066889E0,-5.5810237E-1,-1.28107E-1,5.7732815E-1,-1.1837303E-1,2.0833054E-1,-9.869141E-1,1.543942E-1,-7.241427E-1,-2.8254035E-1,-7.032178E-1,-1.2258319E-1,2.2412127E-2,-4.8602003E-1,-1.2486536E-2,-1.5613735E-1,-1.7452211E0,1.2048786E0,3.020576E0,-2.6301304E-1,1.2456738E0,4.8399758E-2,4.0085334E-1,-4.259361E-1,-1.4299694E-1,1.3164954E-1,7.961471E-2,-1.4596212E-1,-1.3375442E-1,-1.4569823E-1,-1.9470082E-1,1.2724541E-1,-1.3601322E-1,9.066432E-2,-1.3201919E-1,-3.8074013E-3,-1.3550876E-1,4.6418384E-3,1.19537376E-1,-1.4170535E-1,1.2614745E-1,-2.0352538E-1,4.415737E-2,-9.5403805E-2,4.5600448E-2,-1.5538113E-1,-1.5462078E-2,-1.3120033E-1],"split_indices":[13,11,3,3,3,6,11,0,9,25,22,19,3,13,28,10,0,26,3,27,0,0,25,6,12,0,17,15,13,0,0,0,0,0,0,0,0,0,0,0,0,0,0,0,0,0,0,0,0,0,0,0,0],"split_type":[0,0,0,0,0,0,0,0,0,0,0,0,0,0,0,0,0,0,0,0,0,0,0,0,0,0,0,0,0,0,0,0,0,0,0,0,0,0,0,0,0,0,0,0,0,0,0,0,0,0,0,0,0],"sum_hessian":[8.7486266E4,3.8190344E4,4.9295918E4,3.3686305E4,4.5040415E3,3.295595E4,1.633997E4,2.4973421E1,3.366133E4,2.4892195E3,2.0148218E3,2.9224549E4,3.7314011E3,5.4704697E3,1.08695E4,3.36496E4,1.172891E1,1.8702148E3,6.1900476E2,1.9693492E3,4.547263E1,6.757857E2,2.8548762E4,2.5428865E3,1.1885148E3,1.8410062E3,3.6294634E3,2.1575623E3,8.7119375E3,5.0405583E0,3.364456E4,1.5353318E3,3.3488306E2,2.3601147E2,3.8299326E2,2.275286E1,1.9465963E3,3.6270792E2,3.1307776E2,2.8170643E4,3.7811954E2,2.2650806E3,2.77806E2,9.0926215E2,2.7925256E2,1.8093534E3,3.165281E1,2.2629038E3,1.3665596E3,1.7667927E3,3.9076956E2,2.3072146E3,6.404723E3],"tree_param":{"num_deleted":"0","num_feature":"30","num_nodes":"53","size_leaf_vector":"1"}},{"base_weights":[1.4248925E-4,1.1760699E0,-8.975506E-1,1.273998E0,4.7143394E-1,-1.1628159E0,-3.7960956E-1,-1.376141E-1,1.2762566E0,-1.6990489E-1,1.1253812E0,-1.2363329E0,-5.997458E-1,3.217583E-1,-7.3852885E-1,1.2771462E0,-1.5792975E-1,4.803917E-1,-1.1378686E0,1.1758118E0,-1.4686188E-1,-2.9452625E-1,-1.2590806E0,-1.1534257E0,5.267486E-1,7.797388E-1,-4.293763E-1,8.1767246E-2,-9.5033115E-1,-1.4231634E-1,1.2779547E-1,-1.6522254E-1,9.206033E-2,-1.5162085E-1,6.396654E-2,1.2040669E-1,-2.1961828E-1,-1.3144158E-1,8.361646E-2,-1.2766588E-1,-3.4316487E-3,7.6919E-3,-1.3110432E-1,1.3709272E-1,-7.4360184E-2,9.924044E-2,-1.4537881E-1,8.599758E-2,-1.12321995E-1,-1.3855998E-1,4.8075244E-2,-1.2565625E-1,-1.2651965E-2],"categories":[],"categories_nodes":[],"categories_segments":[],"categories_sizes":[],"default_left":[0,0,0,0,0,0,0,0,0,0,0,0,0,0,0,0,0,0,0,0,0,0,0,0,0,0,0,0,0,0,0,0,0,0,0,0,0,0,0,0,0,0,0,0,0,0,0,0,0,0,0,0,0],"id":8,"left_children":[1,3,5,7,9,11,13,-1,15,17,19,21,23,25,27,29,-1,31,33,35,-1,37,39,41,43,45,47,49,51,-1,-1,-1,-1,-1,-1,-1,-1,-1,-1,-1,-1,-1,-1,-1,-1,-1,-1,-1,-1,-1,-1,-1,-1],"loss_changes":[8.70019E4,2.4614219E3,6.421E3,1.8924219E2,1.8267576E3,1.2786953E3,3.9855212E3,0E0,8.153516E1,1.385147E3,2.8383618E2,5.853047E2,2.2281323E3,1.8441233E3,1.819582E3,7.0125E1,0E0,1.2373857E3,5.956216E2,2.0424365E2,0E0,7.460814E2,5.746172E2,4.645056E2,1.2638652E3,1.5831682E3,1.8177225E3,1.2594258E3,2.0996636E3,0E0,0E0,0E0,0E0,0E0,0E0,0E0,0E0,0E0,0E0,0E0,0E0,0E0,0E0,0E0,0E0,0E0,0E0,0E0,0E0,0E0,0E0,0E0,0E0],"parents":[2147483647,0,0,1,1,2,2,3,3,4,4,5,5,6,6,8,8,9,9,10,10,11,11,12,12,13,13,14,14,15,15,17,17,18,18,19,19,21,21,22,22,23,23,24,24,25,25,26,26,27,27,28,28],"right_children":[2,4,6,8,10,12,14,-1,16,18,20,22,24,26,28,30,-1,32,34,36,-1,38,40,42,44,46,48,50,52,-1,-1,-1,-1,-1,-1,-1,-1,-1,-1,-1,-1,-1,-1,-1,-1,-1,-1,-1,-1,-1,-1,-1,-1],"split_conditions":[-1.7860076E0,-1.7701555E0,7.4178904E-1,-4.8602003E-1,2.1824439E0,1.066889E0,-5.5810237E-1,-1.376141E-1,3.1606987E-1,-1.1755707E-1,5.7732815E-1,-9.869141E-1,1.543942E-1,3.4096313E-1,-2.8254035E-1,-4.8507175E-1,-1.5792975E-1,-2.0600177E-1,9.646025E-1,7.382561E-1,-1.4686188E-1,-1.7452211E0,1.2048786E0,-1.6803147E0,-7.0394987E-1,1.278389E0,-7.4036527E-1,9.910479E-3,5.5452347E-1,-1.4231634E-1,1.2779547E-1,-1.6522254E-1,9.206033E-2,-1.5162085E-1,6.396654E-2,1.2040669E-1,-2.1961828E-1,-1.3144158E-1,8.361646E-2,-1.2766588E-1,-3.4316487E-3,7.6919E-3,-1.3110432E-1,1.3709272E-1,-7.4360184E-2,9.924044E-2,-1.4537881E-1,8.599758E-2,-1.12321995E-1,-1.3855998E-1,4.8075244E-2,-1.2565625E-1,-1.2651965E-2],"split_indices":[13,9,3,3,3,6,11,0,11,21,9,19,3,13,28,10,0,20,29,12,0,0,25,9,9,2,6,27,16,0,0,0,0,0,0,0,0,0,0,0,0,0,0,0,0,0,0,0,0,0,0,0,0],"split_type":[0,0,0,0,0,0,0,0,0,0,0,0,0,0,0,0,0,0,0,0,0,0,0,0,0,0,0,0,0,0,0,0,0,0,0,0,0,0,0,0,0,0,0,0,0,0,0,0,0,0,0,0,0],"sum_hessian":[8.241567E4,3.5678516E4,4.6737156E4,3.1324344E4,4.3541714E3,3.0906854E4,1.5830302E4,2.6154026E1,3.129819E4,2.1986511E3,2.15552E3,2.7336484E4,3.570369E3,5.3587725E3,1.0471529E4,3.1288994E4,9.196336E0,1.3154264E3,8.8322485E2,2.1149495E3,4.057053E1,6.4502454E2,2.669146E4,2.3937834E3,1.1765854E3,3.328989E3,2.0297834E3,2.1490437E3,8.322485E3,8.838096E0,3.1280156E4,2.2459868E2,1.0908276E3,7.283467E2,1.5487819E2,2.0980125E3,1.6937029E1,3.3904318E2,3.0598135E2,2.6313758E4,3.7770175E2,2.7189682E2,2.1218867E3,7.068123E2,4.697731E2,3.0400828E3,2.8890622E2,7.100591E2,1.3197244E3,4.5888977E2,1.6901539E3,6.066785E3,2.2557004E3],"tree_param":{"num_deleted":"0","num_feature":"30","num_nodes":"53","size_leaf_vector":"1"}},{"base_weights":[5.3877062E-5,1.1410493E0,-8.585835E-1,1.2390583E0,4.3926525E-1,-1.1235483E0,-3.56327E-1,-1.2010652E-1,1.2409045E0,-1.5209917E0,6.110134E-1,-1.1982751E0,-5.665454E-1,2.993991E-1,-6.943534E-1,1.2416766E0,-1.671931E0,-1.7161305E0,-1.2996678E-1,1.6846974E-1,1.1126934E0,-2.8035158E-1,-1.2209415E0,-1.1105876E0,4.7482178E-1,5.228801E-1,-1.1137321E0,4.0167478E-1,-8.486421E-1,-1.3398272E-1,1.2422027E-1,-2.2249477E-1,-1.0257143E-1,-1.8147823E-1,-1.2725697E-1,5.6913298E-2,-1.3645433E-1,-1.7274387E-1,1.1687092E-1,-1.2756072E-1,7.7199765E-2,-1.2392739E-1,-3.0926554E-3,-1.2795126E-1,1.0580127E-2,9.970881E-2,-1.3700122E-1,-1.0101863E-1,7.246775E-2,-1.5056942E-1,8.246375E-2,-7.772686E-2,1.3902247E-1,5.439131E-3,-1.0970726E-1],"categories":[],"categories_nodes":[],"categories_segments":[],"categories_sizes":[],"default_left":[0,0,0,0,0,0,0,0,0,0,0,0,0,0,0,0,0,0,0,0,0,0,0,0,0,0,0,0,0,0,0,0,0,0,0,0,0,0,0,0,0,0,0,0,0,0,0,0,0,0,0,0,0,0,0],"id":9,"left_children":[1,3,5,7,9,11,13,-1,15,17,19,21,23,25,27,29,31,33,-1,35,37,39,41,43,45,47,49,51,53,-1,-1,-1,-1,-1,-1,-1,-1,-1,-1,-1,-1,-1,-1,-1,-1,-1,-1,-1,-1,-1,-1,-1,-1,-1,-1],"loss_changes":[7.580678E4,2.2847578E3,5.875326E3,1.3283203E2,1.3722291E3,1.2023633E3,3.3803142E3,0E0,6.758984E1,1.1953125E1,8.314192E2,5.298633E2,1.9385938E3,1.6389495E3,1.7019912E3,4.121875E1,6.2895393E-1,5.190979E0,0E0,1.2238973E3,2.8128638E2,6.4552515E2,5.425E2,4.6189844E2,1.1330669E3,1.3867454E3,5.397091E2,1.4490435E3,1.9790356E3,0E0,0E0,0E0,0E0,0E0,0E0,0E0,0E0,0E0,0E0,0E0,0E0,0E0,0E0,0E0,0E0,0E0,0E0,0E0,0E0,0E0,0E0,0E0,0E0,0E0,0E0],"parents":[2147483647,0,0,1,1,2,2,3,3,4,4,5,5,6,6,8,8,9,9,10,10,11,11,12,12,13,13,14,14,15,15,16,16,17,17,19,19,20,20,21,21,22,22,23,23,24,24,25,25,26,26,27,27,28,28],"right_children":[2,4,6,8,10,12,14,-1,16,18,20,22,24,26,28,30,32,34,-1,36,38,40,42,44,46,48,50,52,54,-1,-1,-1,-1,-1,-1,-1,-1,-1,-1,-1,-1,-1,-1,-1,-1,-1,-1,-1,-1,-1,-1,-1,-1,-1,-1],"split_conditions":[-1.7860076E0,-1.4170201E0,7.4178904E-1,-4.9859717E-1,6.607275E-1,1.066889E0,-5.5810237E-1,-1.2010652E-1,1.9894891E0,-1.1837303E-1,1.8989279E0,-9.869141E-1,1.543942E-1,1.2429868E0,-6.041179E-1,-7.032178E-1,-5.027536E-1,5.2819565E-2,-1.2996678E-1,2.2412127E-2,-8.742564E-1,-1.7452211E0,1.2048786E0,8.8191885E-1,-2.6301304E-1,-1.2825807E0,7.4898343E0,2.0125085E-1,-2.8254035E-1,-1.3398272E-1,1.2422027E-1,-2.2249477E-1,-1.0257143E-1,-1.8147823E-1,-1.2725697E-1,5.6913298E-2,-1.3645433E-1,-1.7274387E-1,1.1687092E-1,-1.2756072E-1,7.7199765E-2,-1.2392739E-1,-3.0926554E-3,-1.2795126E-1,1.0580127E-2,9.970881E-2,-1.3700122E-1,-1.0101863E-1,7.246775E-2,-1.5056942E-1,8.246375E-2,-7.772686E-2,1.3902247E-1,5.439131E-3,-1.0970726E-1],"split_indices":[13,11,3,3,16,6,11,0,6,25,3,19,3,12,7,10,9,26,0,26,21,0,25,14,12,10,28,8,28,0,0,0,0,0,0,0,0,0,0,0,0,0,0,0,0,0,0,0,0,0,0,0,0,0,0],"split_type":[0,0,0,0,0,0,0,0,0,0,0,0,0,0,0,0,0,0,0,0,0,0,0,0,0,0,0,0,0,0,0,0,0,0,0,0,0,0,0,0,0,0,0,0,0,0,0,0,0,0,0,0,0,0,0],"sum_hessian":[7.7375445E4,3.3224688E4,4.415076E4,2.9152564E4,4.0721223E3,2.8902205E4,1.5248558E4,2.154956E1,2.9131014E4,3.2740552E2,3.7447168E3,2.548237E4,3.4198357E3,5.186859E3,1.0061699E4,2.9123867E4,7.1459713E0,1.7040623E2,1.5699927E2,1.9903334E3,1.7543834E3,6.143973E2,2.486797E4,2.246256E3,1.1735795E3,4.4791323E3,7.077266E2,1.2414126E3,8.820286E3,5.4157143E0,2.9118453E4,2.5342152E0,4.611756E0,1.3687308E2,3.3533157E1,1.5784291E3,4.1190433E2,3.335522E1,1.7210282E3,3.1565527E2,2.9874203E2,2.4490648E4,3.7732355E2,1.9723022E3,2.7395392E2,9.1500433E2,2.5857513E2,5.205417E2,3.9585906E3,5.8887256E2,1.1885404E2,5.6628064E2,6.751319E2,1.9031617E3,6.917125E3],"tree_param":{"num_deleted":"0","num_feature":"30","num_nodes":"55","size_leaf_vector":"1"}},{"base_weights":[-3.1534764E-5,1.1092758E0,-8.2166654E-1,1.2094998E0,4.1436973E-1,-1.0892146E0,-3.329865E-1,-1.1695161E-1,1.2113094E0,-1.4494666E0,5.761236E-1,-1.1649028E0,-5.385648E-1,5.28783E-1,-5.6836236E-1,1.2120911E0,-1.5697329E-1,-1.6061279E0,-1.2633745E-1,6.892304E-1,-1.3342147E-1,-1.1832777E0,-3.6965426E-2,-1.0715983E0,4.3401697E-1,7.749659E-1,-1.3993959E-1,2.571515E-2,-9.5907396E-1,-1.2729245E-1,1.21261716E-1,-1.682943E-1,-1.23645864E-1,7.7311985E-2,-1.6088904E-1,-2.6252134E-2,-1.2068329E-1,-1.4327012E-1,2.1084808E-1,-1.2453567E-1,1.3923854E-2,1.1640823E-1,-7.105895E-2,9.68478E-2,-1.4593635E-1,1.0477187E-1,-4.2089663E-2,2.4197184E-1,-1.03438914E-1],"categories":[],"categories_nodes":[],"categories_segments":[],"categories_sizes":[],"default_left":[0,0,0,0,0,0,0,0,0,0,0,0,0,0,0,0,0,0,0,0,0,0,0,0,0,0,0,0,0,0,0,0,0,0,0,0,0,0,0,0,0,0,0,0,0,0,0,0,0],"id":10,"left_children":[1,3,5,7,9,11,13,-1,15,17,19,21,23,25,27,29,-1,31,-1,33,-1,35,37,39,41,43,-1,45,47,-1,-1,-1,-1,-1,-1,-1,-1,-1,-1,-1,-1,-1,-1,-1,-1,-1,-1,-1,-1],"loss_changes":[6.6152836E4,2.1504297E3,5.4512715E3,1.17609375E2,1.1749026E3,1.1223438E3,2.992873E3,0E0,6.053125E1,7.045349E0,7.7533264E2,4.9089258E2,1.6894E3,1.5037612E3,2.6899246E3,3.6785156E1,0E0,2.6132812E0,0E0,6.53709E2,0E0,5.051953E2,1.143106E3,4.4300146E2,9.652305E2,1.2154471E3,0E0,2.0994985E3,1.7815273E3,0E0,0E0,0E0,0E0,0E0,0E0,0E0,0E0,0E0,0E0,0E0,0E0,0E0,0E0,0E0,0E0,0E0,0E0,0E0,0E0],"parents":[2147483647,0,0,1,1,2,2,3,3,4,4,5,5,6,6,8,8,9,9,10,10,11,11,12,12,13,13,14,14,15,15,17,17,19,19,21,21,22,22,23,23,24,24,25,25,27,27,28,28],"right_children":[2,4,6,8,10,12,14,-1,16,18,20,22,24,26,28,30,-1,32,-1,34,-1,36,38,40,42,44,-1,46,48,-1,-1,-1,-1,-1,-1,-1,-1,-1,-1,-1,-1,-1,-1,-1,-1,-1,-1,-1,-1],"split_conditions":[-1.7860076E0,-1.4170201E0,7.4178904E-1,-4.9859717E-1,6.607275E-1,1.066889E0,-8.0741286E-1,-1.1695161E-1,1.9894891E0,-1.1837303E-1,4.765332E-1,1.2048786E0,1.543942E-1,1.2332667E0,-1.161863E-1,-7.032178E-1,-1.5697329E-1,5.2819565E-2,-1.2633745E-1,4.1747132E-1,-1.3342147E-1,-9.869141E-1,1.3461169E0,3.020576E0,-7.0394987E-1,1.2456738E0,-1.3993959E-1,-1.1678206E0,-2.150528E0,-1.2729245E-1,1.21261716E-1,-1.682943E-1,-1.23645864E-1,7.7311985E-2,-1.6088904E-1,-2.6252134E-2,-1.2068329E-1,-1.4327012E-1,2.1084808E-1,-1.2453567E-1,1.3923854E-2,1.1640823E-1,-7.105895E-2,9.68478E-2,-1.4593635E-1,1.0477187E-1,-4.2089663E-2,2.4197184E-1,-1.03438914E-1],"split_indices":[13,11,3,3,16,6,13,0,6,25,25,25,3,2,7,10,0,26,0,7,0,19,11,6,9,0,0,12,15,0,0,0,0,0,0,0,0,0,0,0,0,0,0,0,0,0,0,0,0],"split_type":[0,0,0,0,0,0,0,0,0,0,0,0,0,0,0,0,0,0,0,0,0,0,0,0,0,0,0,0,0,0,0,0,0,0,0,0,0,0,0,0,0,0,0,0,0,0,0,0,0],"sum_hessian":[7.257812E4,3.0882557E4,4.1695562E4,2.6989244E4,3.8933113E3,2.694318E4,1.4752384E4,2.002331E1,2.6969223E4,3.1026535E2,3.583046E3,2.368632E4,3.256859E3,3.1646316E3,1.1587752E4,2.6962207E4,7.01384E0,1.6431026E2,1.4595508E2,3.3833638E3,1.9968211E2,2.330659E4,3.7972946E2,2.103766E3,1.1530928E3,2.80686E3,3.5777158E2,4.5977705E3,6.9899814E3,5.194274E0,2.6957014E4,1.3310023E2,3.1210022E1,3.2648489E3,1.1851487E2,5.816708E2,2.272492E4,2.3026262E2,1.4946683E2,1.8397313E3,2.6403485E2,7.040261E2,4.490666E2,2.5836594E3,2.2320055E2,1.3977911E3,3.1999795E3,1.5173442E2,6.838247E3],"tree_param":{"num_deleted":"0","num_feature":"30","num_nodes":"49","size_leaf_vector":"1"}},{"base_weights":[-9.540697E-5,1.0795115E0,-7.8595674E-1,1.1840749E0,3.825546E-1,-1.057196E0,-3.1025392E-1,-1.3287841E-1,1.1865069E0,-1.8836667E-1,1.0166656E0,-1.134436E0,-5.107165E-1,1.6967279E-1,-7.089844E-1,1.187358E0,-2.035589E0,4.091603E-1,-1.0776647E0,1.0621305E0,-1.82252E0,-2.4182135E-1,-1.158706E0,1.6722374E-1,-1.2456009E0,4.722196E-1,-5.89723E-1,1.5013063E-1,-9.685181E-1,1.18823506E-1,-1.7699821E-1,-8.706786E-2,-2.2864418E-1,8.141356E-2,-1.6033417E-1,5.361853E-2,-1.4529632E-1,1.0928792E-1,-2.3692623E-1,-1.3881594E-1,-2.4242525E-1,6.999929E-2,-1.3083844E-1,-1.1784067E-1,-2.8931263E-3,7.3604606E-2,-1.289157E-1,-1.2150488E-1,-1.4678538E-1,6.352131E-2,-1.4461583E-1,6.030258E-2,-1.4185812E-1,1.0912156E-1,-5.7172876E-2,6.411357E-2,-1.1932959E-1],"categories":[],"categories_nodes":[],"categories_segments":[],"categories_sizes":[],"default_left":[0,0,0,0,0,0,0,0,0,0,0,0,0,0,0,0,0,0,0,0,0,0,0,0,0,0,0,0,0,0,0,0,0,0,0,0,0,0,0,0,0,0,0,0,0,0,0,0,0,0,0,0,0,0,0,0,0],"id":11,"left_children":[1,3,5,7,9,11,13,-1,15,17,19,21,23,25,27,29,31,33,35,37,39,41,43,45,47,49,51,53,55,-1,-1,-1,-1,-1,-1,-1,-1,-1,-1,-1,-1,-1,-1,-1,-1,-1,-1,-1,-1,-1,-1,-1,-1,-1,-1,-1,-1],"loss_changes":[5.7757125E4,2.0895078E3,5.0831445E3,1.5396484E2,1.3551621E3,1.0585E3,2.7381284E3,0E0,7.074219E1,1.047439E3,2.3085095E2,4.7594727E2,1.5491345E3,1.4922314E3,1.742721E3,6.669922E1,3.9556503E-2,9.6238715E2,4.8054492E2,1.8681921E2,4.036339E0,5.86688E2,4.7628906E2,1.3413638E3,8.347412E0,1.45309E3,1.8303009E3,1.2329775E3,2.1724648E3,0E0,0E0,0E0,0E0,0E0,0E0,0E0,0E0,0E0,0E0,0E0,0E0,0E0,0E0,0E0,0E0,0E0,0E0,0E0,0E0,0E0,0E0,0E0,0E0,0E0,0E0,0E0,0E0],"parents":[2147483647,0,0,1,1,2,2,3,3,4,4,5,5,6,6,8,8,9,9,10,10,11,11,12,12,13,13,14,14,15,15,16,16,17,17,18,18,19,19,20,20,21,21,22,22,23,23,24,24,25,25,26,26,27,27,28,28],"right_children":[2,4,6,8,10,12,14,-1,16,18,20,22,24,26,28,30,32,34,36,38,40,42,44,46,48,50,52,54,56,-1,-1,-1,-1,-1,-1,-1,-1,-1,-1,-1,-1,-1,-1,-1,-1,-1,-1,-1,-1,-1,-1,-1,-1,-1,-1,-1,-1],"split_conditions":[-1.7860076E0,-1.7701555E0,7.4178904E-1,-4.8602003E-1,2.1824439E0,1.066889E0,-2.1243742E-1,-1.3287841E-1,-1.8962754E0,-1.1755707E-1,7.382561E-1,-9.869141E-1,-2.1396725E-1,8.305226E-2,-2.8254035E-1,-1.7355879E-1,1.1554061E0,5.2928734E-1,-1.0696722E0,8.364995E-1,1.0799626E0,-8.944844E-1,1.2048786E0,-2.6301304E-1,1.543942E-1,1.2456738E0,-2.993126E-1,-1.2562945E-1,-4.727931E-1,1.18823506E-1,-1.7699821E-1,-8.706786E-2,-2.2864418E-1,8.141356E-2,-1.6033417E-1,5.361853E-2,-1.4529632E-1,1.0928792E-1,-2.3692623E-1,-1.3881594E-1,-2.4242525E-1,6.999929E-2,-1.3083844E-1,-1.1784067E-1,-2.8931263E-3,7.3604606E-2,-1.289157E-1,-1.2150488E-1,-1.4678538E-1,6.352131E-2,-1.4461583E-1,6.030258E-2,-1.4185812E-1,1.0912156E-1,-5.7172876E-2,6.411357E-2,-1.1932959E-1],"split_indices":[13,9,3,3,3,6,11,0,13,21,12,19,25,7,28,2,17,15,6,29,17,15,25,12,3,0,2,21,19,0,0,0,0,0,0,0,0,0,0,0,0,0,0,0,0,0,0,0,0,0,0,0,0,0,0,0,0],"split_type":[0,0,0,0,0,0,0,0,0,0,0,0,0,0,0,0,0,0,0,0,0,0,0,0,0,0,0,0,0,0,0,0,0,0,0,0,0,0,0,0,0,0,0,0,0,0,0,0,0,0,0,0,0,0,0,0,0],"sum_hessian":[6.807399E4,2.8677209E4,3.939678E4,2.4935479E4,3.7417295E3,2.5089732E4,1.4307048E4,2.358206E1,2.4911896E4,1.9693394E3,1.7723901E3,2.1981736E4,3.1079968E3,6.4927314E3,7.8143164E3,2.490595E4,5.9478674E0,1.1782219E3,7.9111743E2,1.7450715E3,2.7318556E1,5.821455E2,2.1399592E4,1.6170343E3,1.4909624E3,4.6432266E3,1.849505E3,1.8130695E3,6.001247E3,2.4899164E4,6.785523E0,1.8460506E0,4.1018167E0,9.813421E2,1.9687978E2,1.4918153E2,6.419359E2,1.7302483E3,1.4823271E1,1.7786388E1,9.532168E0,3.0933502E2,2.7281046E2,2.1032781E4,3.6680893E2,1.1632108E3,4.5382355E2,1.3164609E3,1.745015E2,4.280229E3,3.6299747E2,7.5840814E2,1.0910969E3,7.868043E2,1.026265E3,7.3512195E2,5.266125E3],"tree_param":{"num_deleted":"0","num_feature":"30","num_nodes":"57","size_leaf_vector":"1"}},{"base_weights":[-3.23114E-4,1.0548222E0,-7.542389E-1,1.1615632E0,3.646428E-1,-1.0286857E0,-2.9115745E-1,1.163455E0,-1.16627745E-1,-1.404803E0,5.195145E-1,-1.1076553E0,-4.857009E-1,3.184764E-1,-5.716764E-1,-1.19808316E-1,1.1645916E0,-1.5435269E0,-1.2612419E-1,-1.6090467E0,6.143239E-1,-5.047746E-1,-1.147511E0,1.5250345E-1,-1.2174661E0,8.079519E-1,-7.462193E-1,2.8108674E-1,-9.251513E-1,-2.8404573E-1,1.1649332E-1,-1.6517346E-1,-1.2467171E-1,-1.7088012E-1,-1.3177416E-1,7.176773E-2,-1.2548034E-1,-9.373667E-2,3.8921222E-1,-1.1695895E-1,1.0696147E-3,6.637256E-2,-1.2570365E-1,-1.1904426E-1,-1.408948E-1,1.093962E-1,-8.0849536E-2,1.02837145E-1,-1.4020921E-1,-4.964236E-2,7.756828E-2,-1.10482804E-1,1.50354225E-2],"categories":[],"categories_nodes":[],"categories_segments":[],"categories_sizes":[],"default_left":[0,0,0,0,0,0,0,0,0,0,0,0,0,0,0,0,0,0,0,0,0,0,0,0,0,0,0,0,0,0,0,0,0,0,0,0,0,0,0,0,0,0,0,0,0,0,0,0,0,0,0,0,0],"id":12,"left_children":[1,3,5,7,9,11,13,15,-1,17,19,21,23,25,27,-1,29,31,-1,33,35,37,39,41,43,45,47,49,51,-1,-1,-1,-1,-1,-1,-1,-1,-1,-1,-1,-1,-1,-1,-1,-1,-1,-1,-1,-1,-1,-1,-1,-1],"loss_changes":[5.0635613E4,1.9538438E3,4.7181113E3,1.0253125E2,9.7480884E2,9.989961E2,2.3630234E3,6.3003906E1,0E0,3.7559204E0,6.607395E2,4.8839453E2,1.3832605E3,2.2700574E3,2.8526658E3,0E0,3.471289E1,2.4743042E0,0E0,1.807312E0,6.05657E2,2.407239E3,4.8810742E2,1.1413622E3,5.4622803E0,1.3803292E3,1.5983486E3,1.0670468E3,1.2929893E3,0E0,0E0,0E0,0E0,0E0,0E0,0E0,0E0,0E0,0E0,0E0,0E0,0E0,0E0,0E0,0E0,0E0,0E0,0E0,0E0,0E0,0E0,0E0,0E0],"parents":[2147483647,0,0,1,1,2,2,3,3,4,4,5,5,6,6,7,7,9,9,10,10,11,11,12,12,13,13,14,14,16,16,17,17,19,19,20,20,21,21,22,22,23,23,24,24,25,25,26,26,27,27,28,28],"right_children":[2,4,6,8,10,12,14,16,-1,18,20,22,24,26,28,-1,30,32,-1,34,36,38,40,42,44,46,48,50,52,-1,-1,-1,-1,-1,-1,-1,-1,-1,-1,-1,-1,-1,-1,-1,-1,-1,-1,-1,-1,-1,-1,-1,-1],"split_conditions":[-1.7860076E0,-1.4170201E0,7.4178904E-1,5.7732815E-1,3.335357E-2,1.066889E0,-4.259361E-1,-7.032178E-1,-1.16627745E-1,-1.1837303E-1,-1.8445258E-1,-1.5604115E0,-2.1396725E-1,-8.279308E-2,-2.5221828E-1,-1.19808316E-1,-9.2726654E-1,2.2412127E-2,-1.2612419E-1,-9.860824E-2,4.765332E-1,1.4979368E0,1.2048786E0,-2.6301304E-1,1.543942E-1,2.4890085E-1,-2.5585265E0,1.7294651E0,1.279002E0,-2.8404573E-1,1.1649332E-1,-1.6517346E-1,-1.2467171E-1,-1.7088012E-1,-1.3177416E-1,7.176773E-2,-1.2548034E-1,-9.373667E-2,3.8921222E-1,-1.1695895E-1,1.0696147E-3,6.637256E-2,-1.2570365E-1,-1.1904426E-1,-1.408948E-1,1.093962E-1,-8.0849536E-2,1.02837145E-1,-1.4020921E-1,-4.964236E-2,7.756828E-2,-1.10482804E-1,1.50354225E-2],"split_indices":[13,11,3,9,17,6,13,10,0,25,27,12,25,12,28,0,29,26,0,25,25,10,25,12,3,7,11,3,6,0,0,0,0,0,0,0,0,0,0,0,0,0,0,0,0,0,0,0,0,0,0,0,0],"split_type":[0,0,0,0,0,0,0,0,0,0,0,0,0,0,0,0,0,0,0,0,0,0,0,0,0,0,0,0,0,0,0,0,0,0,0,0,0,0,0,0,0,0,0,0,0,0,0,0,0,0,0,0,0],"sum_hessian":[6.365131E4,2.652615E4,3.712516E4,2.2972598E4,3.5535515E3,2.330949E4,1.3815668E4,2.2954443E4,1.8155504E1,2.8534518E2,3.2682063E3,2.0348975E4,2.9605164E3,4.3537676E3,9.4619E3,1.0534809E1,2.2943908E4,1.4015808E2,1.4518709E2,1.3868246E2,3.1295237E3,1.2626757E3,1.9086299E4,1.5817738E3,1.3787424E3,2.9827437E3,1.3710238E3,2.7727668E3,6.689134E3,1.2483797E0,2.294266E4,9.936701E1,4.0791077E1,9.9681496E1,3.9000973E1,2.966128E3,1.6339597E2,1.1502903E3,1.1238539E2,1.8729258E4,3.5703976E2,1.1611637E3,4.2061014E2,1.2145519E3,1.6419058E2,2.534601E3,4.4814264E2,3.6982443E2,1.0011994E3,1.0780526E3,1.6947142E3,5.7315747E3,9.5755896E2],"tree_param":{"num_deleted":"0","num_feature":"30","num_nodes":"53","size_leaf_vector":"1"}},{"base_weights":[-5.718564E-4,1.030075E0,-7.238716E-1,1.141115E0,3.3338356E-1,-1.0005623E0,-2.7343044E-1,-1.2954925E-1,1.1436843E0,-1.99188E-1,9.5616966E-1,-1.0637834E0,-2.991387E-1,1.5898007E-1,-6.473197E-1,1.1448331E0,-1.5307301E-1,3.483767E-1,-1.0276829E0,9.973258E-1,-2.1072936E0,-7.009283E-1,-1.1492457E0,5.164981E-1,-1.2066529E-1,-2.199751E-1,6.9386965E-1,5.372888E-1,-8.173118E-1,-1.4052938E-1,1.1458751E-1,-1.4881355E-1,7.5261526E-2,-1.3836245E-1,5.435095E-2,1.0434071E-1,-1.3873433E-1,-2.3635606E-1,-1.1655996E-1,3.6216676E-2,-1.0296195E-1,-1.16797246E-1,4.8612993E-2,8.21412E-2,-1.4431089E-1,8.986612E-4,-1.5112212E-1,9.607849E-2,-8.560785E-2,-1.3350679E-1,1.303325E-1,5.646215E-3,-1.1169093E-1],"categories":[],"categories_nodes":[],"categories_segments":[],"categories_sizes":[],"default_left":[0,0,0,0,0,0,0,0,0,0,0,0,0,0,0,0,0,0,0,0,0,0,0,0,0,0,0,0,0,0,0,0,0,0,0,0,0,0,0,0,0,0,0,0,0,0,0,0,0,0,0,0,0],"id":13,"left_children":[1,3,5,7,9,11,13,-1,15,17,19,21,23,25,27,29,-1,31,33,35,37,39,41,43,-1,45,47,49,51,-1,-1,-1,-1,-1,-1,-1,-1,-1,-1,-1,-1,-1,-1,-1,-1,-1,-1,-1,-1,-1,-1,-1,-1],"loss_changes":[4.4383684E4,1.8990195E3,4.360074E3,1.340586E2,1.1201655E3,9.607363E2,2.1526572E3,0E0,6.674609E1,8.264656E2,1.9836877E2,6.1568555E2,1.3280044E3,1.2517649E3,1.4383447E3,5.7802734E1,0E0,8.156202E2,4.0613843E2,1.7031677E2,2.302559E0,1.3255118E3,4.9329297E2,5.65919E2,0E0,1.068755E3,1.0602335E3,1.2878391E3,1.6348262E3,0E0,0E0,0E0,0E0,0E0,0E0,0E0,0E0,0E0,0E0,0E0,0E0,0E0,0E0,0E0,0E0,0E0,0E0,0E0,0E0,0E0,0E0,0E0,0E0],"parents":[2147483647,0,0,1,1,2,2,3,3,4,4,5,5,6,6,8,8,9,9,10,10,11,11,12,12,13,13,14,14,15,15,17,17,18,18,19,19,20,20,21,21,22,22,23,23,25,25,26,26,27,27,28,28],"right_children":[2,4,6,8,10,12,14,-1,16,18,20,22,24,26,28,30,-1,32,34,36,38,40,42,44,-1,46,48,50,52,-1,-1,-1,-1,-1,-1,-1,-1,-1,-1,-1,-1,-1,-1,-1,-1,-1,-1,-1,-1,-1,-1,-1,-1],"split_conditions":[-1.7860076E0,-1.7701555E0,7.4178904E-1,-4.8602003E-1,2.1824439E0,4.164047E0,-2.1243742E-1,-1.2954925E-1,3.1606987E-1,-1.1755707E-1,8.364995E-1,-6.488309E-1,-3.33678E-1,4.877368E-1,-4.4386563E-1,-4.8507175E-1,-1.5307301E-1,5.639164E-2,9.646025E-1,5.7732815E-1,5.618557E-1,-9.935238E-1,1.7856927E0,7.4294955E-1,-1.2066529E-1,2.9708993E0,1.2429868E0,2.6117995E-1,-2.8254035E-1,-1.4052938E-1,1.1458751E-1,-1.4881355E-1,7.5261526E-2,-1.3836245E-1,5.435095E-2,1.0434071E-1,-1.3873433E-1,-2.3635606E-1,-1.1655996E-1,3.6216676E-2,-1.0296195E-1,-1.16797246E-1,4.8612993E-2,8.21412E-2,-1.4431089E-1,8.986612E-4,-1.5112212E-1,9.607849E-2,-8.560785E-2,-1.3350679E-1,1.303325E-1,5.646215E-3,-1.1169093E-1],"split_indices":[13,9,3,3,3,28,11,0,11,21,29,13,25,10,20,10,0,29,29,9,9,9,21,5,0,3,12,17,28,0,0,0,0,0,0,0,0,0,0,0,0,0,0,0,0,0,0,0,0,0,0,0,0],"split_type":[0,0,0,0,0,0,0,0,0,0,0,0,0,0,0,0,0,0,0,0,0,0,0,0,0,0,0,0,0,0,0,0,0,0,0,0,0,0,0,0,0,0,0,0,0,0,0,0,0,0,0,0,0],"sum_hessian":[5.953612E4,2.4551578E4,3.4984543E4,2.1175887E4,3.375692E3,2.1671352E4,1.3313194E4,2.1775677E1,2.1154111E4,1.8200057E3,1.555686E3,1.9879082E4,1.792269E3,6.1737275E3,7.139467E3,2.11456E4,8.510731E0,1.0961339E3,7.238718E2,1.5357288E3,1.9957304E1,3.7912869E3,1.6087795E4,9.441428E2,8.481263E2,3.613937E3,2.5597903E3,8.956781E2,6.2437886E3,8.08658E0,2.1137514E4,1.9726233E2,8.9887164E2,5.902701E2,1.3360176E2,1.5071667E3,2.8562008E1,1.4501143E1,5.4561615E0,8.953452E2,2.8959417E3,1.5905941E4,1.8185356E2,8.175182E2,1.266246E2,3.0704778E3,5.434592E2,2.1840562E3,3.7573428E2,2.5983728E2,6.358408E2,1.5944363E3,4.6493525E3],"tree_param":{"num_deleted":"0","num_feature":"30","num_nodes":"53","size_leaf_vector":"1"}},{"base_weights":[-7.134118E-4,1.0100261E0,-6.9448644E-1,1.1245565E0,3.2155222E-1,-9.749454E-1,-2.561059E-1,1.1264169E0,-1.1178181E-1,-9.9026054E-2,9.3126166E-1,-1.0997019E0,-6.019335E-1,5.4855114E-1,-4.418967E-1,-1.161445E-1,1.1275742E0,-6.058068E-1,7.756136E-1,-1.9260967E0,1.0013543E0,-1.1283877E0,1.3936815E-1,1.72711E0,-7.4679756E-1,-1.4284662E0,7.532159E-1,1.8577303E-1,-8.8260424E-1,1.12808324E-1,-1.9384049E-1,1.5508413E-2,-1.4493273E-1,1.0429098E-1,-1.4937158E-1,-2.101727E-1,-1.1064404E-1,-1.7163263E-1,1.0540074E-1,-1.14804044E-1,6.1711013E-2,-1.3320313E-1,1.9770743E-1,4.191882E-2,3.9335144E-1,-1.0668182E-1,6.1893193E-3,-1.6896862E-1,-1.2919126E-1,9.94765E-2,-4.3391075E-2,3.4533534E-2,-1.4541514E-1,-1.1943563E-1,1.6059162E-2],"categories":[],"categories_nodes":[],"categories_segments":[],"categories_sizes":[],"default_left":[0,0,0,0,0,0,0,0,0,0,0,0,0,0,0,0,0,0,0,0,0,0,0,0,0,0,0,0,0,0,0,0,0,0,0,0,0,0,0,0,0,0,0,0,0,0,0,0,0,0,0,0,0,0,0],"id":14,"left_children":[1,3,5,7,9,11,13,15,-1,17,19,21,23,25,27,-1,29,31,33,35,37,39,41,43,45,47,49,51,53,-1,-1,-1,-1,-1,-1,-1,-1,-1,-1,-1,-1,-1,-1,-1,-1,-1,-1,-1,-1,-1,-1,-1,-1,-1,-1],"loss_changes":[3.899796E4,1.7845254E3,4.0543213E3,8.221875E1,8.2834644E2,9.3522266E2,1.9239653E3,5.265625E1,0E0,8.481126E2,2.6601807E2,5.3578125E2,1.7026659E3,9.7793945E2,2.8921174E3,0E0,3.243164E1,7.7769934E2,4.273715E2,2.2687454E0,1.8606995E2,5.0595312E2,9.270478E2,8.5135284E2,1.2288638E3,5.908081E0,6.2795776E2,1.1291873E3,1.9977705E3,0E0,0E0,0E0,0E0,0E0,0E0,0E0,0E0,0E0,0E0,0E0,0E0,0E0,0E0,0E0,0E0,0E0,0E0,0E0,0E0,0E0,0E0,0E0,0E0,0E0,0E0],"parents":[2147483647,0,0,1,1,2,2,3,3,4,4,5,5,6,6,7,7,9,9,10,10,11,11,12,12,13,13,14,14,16,16,17,17,18,18,19,19,20,20,21,21,22,22,23,23,24,24,25,25,26,26,27,27,28,28],"right_children":[2,4,6,8,10,12,14,16,-1,18,20,22,24,26,28,-1,30,32,34,36,38,40,42,44,46,48,50,52,54,-1,-1,-1,-1,-1,-1,-1,-1,-1,-1,-1,-1,-1,-1,-1,-1,-1,-1,-1,-1,-1,-1,-1,-1,-1,-1],"split_conditions":[-1.7860076E0,-1.4170201E0,7.4178904E-1,5.7732815E-1,1.8989279E0,6.890384E-1,-3.5456428E-1,-7.032178E-1,-1.1178181E-1,1.1620206E0,-2.0541616E-2,1.2048786E0,6.995888E-1,-1.0784476E0,-2.0121568E-1,-1.161445E-1,1.9894891E0,-2.209714E-1,-9.7546273E-1,5.7732815E-1,-2.2925311E-1,1.7856927E0,1.3461169E0,1.350857E0,1.543942E-1,-5.5810237E-1,2.8798145E-1,1.3593516E-1,3.591141E0,1.12808324E-1,-1.9384049E-1,1.5508413E-2,-1.4493273E-1,1.0429098E-1,-1.4937158E-1,-2.101727E-1,-1.1064404E-1,-1.7163263E-1,1.0540074E-1,-1.14804044E-1,6.1711013E-2,-1.3320313E-1,1.9770743E-1,4.191882E-2,3.9335144E-1,-1.0668182E-1,6.1893193E-3,-1.6896862E-1,-1.2919126E-1,9.94765E-2,-4.3391075E-2,3.4533534E-2,-1.4541514E-1,-1.1943563E-1,1.6059162E-2],"split_indices":[13,11,3,9,3,6,19,10,0,28,10,25,6,10,28,0,6,14,9,9,19,21,11,15,3,11,11,26,28,0,0,0,0,0,0,0,0,0,0,0,0,0,0,0,0,0,0,0,0,0,0,0,0,0,0],"split_type":[0,0,0,0,0,0,0,0,0,0,0,0,0,0,0,0,0,0,0,0,0,0,0,0,0,0,0,0,0,0,0,0,0,0,0,0,0,0,0,0,0,0,0,0,0,0,0,0,0,0,0,0,0,0,0],"sum_hessian":[5.5612145E4,2.2635146E4,3.2977E4,1.940621E4,3.2289353E3,2.0110105E4,1.2866894E4,1.9390621E4,1.5589344E1,1.9113331E3,1.317602E3,1.5068418E4,5.0416865E3,2.4132395E3,1.0453654E4,9.297409E0,1.9381324E4,1.210346E3,7.0098724E2,3.0913673E1,1.2866885E3,1.4727549E4,3.4086926E2,2.9458542E2,4.747101E3,2.2582632E2,2.187413E3,4.3123896E3,6.1412646E3,1.9378738E4,2.5848217E0,6.367693E2,5.735766E2,6.276044E2,7.338284E1,2.4170443E1,6.74323E0,2.385433E1,1.2628341E3,1.4563915E4,1.6363385E2,1.8945398E2,1.5141528E2,1.8569708E2,1.0888833E2,3.400939E3,1.3461619E3,7.36204E1,1.5220593E2,1.8177174E3,3.6969568E2,3.9307253E3,3.8166452E2,4.728145E3,1.4131195E3],"tree_param":{"num_deleted":"0","num_feature":"30","num_nodes":"55","size_leaf_vector":"1"}},{"base_weights":[-9.7569317E-4,9.912434E-1,-6.657125E-1,1.1148808E0,3.3710596E-1,-9.499853E-1,-2.3975211E-1,1.1158162E0,-1.0284888E-1,-8.104996E-2,9.058513E-1,-1.0396098E0,-3.883673E-1,1.0130397E-1,-6.577657E-1,-2.6164997E-1,1.1162522E0,-4.4835216E-1,8.84125E-1,-1.8312663E0,9.792665E-1,-6.0323946E-2,-1.0707549E0,1.9486651E-1,-1.163232E0,9.681292E-1,-1.9387603E-1,3.3392617E-1,-8.9522636E-1,-2.0204929E-1,1.1166803E-1,2.4453241E-2,-1.4367716E-1,1.1352135E-1,-1.5370902E-1,-2.8545657E-1,-1.6622432E-1,-1.8216053E-1,1.0285448E-1,-1.1543401E-1,7.823105E-2,-1.0964366E-1,7.4512647E-3,-1.3459119E-1,5.952376E-2,-1.137322E-1,-1.324812E-1,1.2122788E-1,-1.4339167E-1,1.4072566E-2,-1.01154104E-1,1.09470226E-1,-1.28729E-1,5.2149028E-2,-1.0494131E-1],"categories":[],"categories_nodes":[],"categories_segments":[],"categories_sizes":[],"default_left":[0,0,0,0,0,0,0,0,0,0,0,0,0,0,0,0,0,0,0,0,0,0,0,0,0,0,0,0,0,0,0,0,0,0,0,0,0,0,0,0,0,0,0,0,0,0,0,0,0,0,0,0,0,0,0],"id":15,"left_children":[1,3,5,7,9,11,13,15,-1,17,19,21,23,25,27,-1,29,31,33,35,37,39,41,43,45,47,49,51,53,-1,-1,-1,-1,-1,-1,-1,-1,-1,-1,-1,-1,-1,-1,-1,-1,-1,-1,-1,-1,-1,-1,-1,-1,-1,-1],"loss_changes":[3.4284414E4,1.686168E3,3.7688994E3,3.6314453E1,7.8878467E2,9.3924023E2,1.776436E3,3.1441406E1,0E0,6.7826294E2,2.8417188E2,4.909297E2,1.1619924E3,1.7560851E3,1.3186772E3,0E0,2.5794922E1,9.4936194E2,3.2238345E2,1.6641693E0,1.9085156E2,4.593104E2,4.5897656E2,9.061189E2,3.1156006E0,1.0241798E3,1.4009493E3,1.3363059E3,9.8727905E2,0E0,0E0,0E0,0E0,0E0,0E0,0E0,0E0,0E0,0E0,0E0,0E0,0E0,0E0,0E0,0E0,0E0,0E0,0E0,0E0,0E0,0E0,0E0,0E0,0E0,0E0],"parents":[2147483647,0,0,1,1,2,2,3,3,4,4,5,5,6,6,7,7,9,9,10,10,11,11,12,12,13,13,14,14,16,16,17,17,18,18,19,19,20,20,21,21,22,22,23,23,24,24,25,25,26,26,27,27,28,28],"right_children":[2,4,6,8,10,12,14,16,-1,18,20,22,24,26,28,-1,30,32,34,36,38,40,42,44,46,48,50,52,54,-1,-1,-1,-1,-1,-1,-1,-1,-1,-1,-1,-1,-1,-1,-1,-1,-1,-1,-1,-1,-1,-1,-1,-1,-1,-1],"split_conditions":[-1.7860076E0,-1.9403781E0,7.4178904E-1,5.7732815E-1,1.8989279E0,1.066889E0,5.4512876E-3,-9.2726654E-1,-1.0284888E-1,2.2497032E0,-8.742564E-1,-9.869141E-1,-2.1396725E-1,-5.8249617E-1,-8.0741286E-1,-2.6164997E-1,4.6490952E-2,-1.9176376E-1,-1.4046595E0,-1.4170201E0,-1.2486536E-2,-1.7452211E0,1.2048786E0,-3.85937E-1,1.543942E-1,-8.279308E-2,3.4096313E-1,-1.00063205E-1,-1.878707E0,-2.0204929E-1,1.1166803E-1,2.4453241E-2,-1.4367716E-1,1.1352135E-1,-1.5370902E-1,-2.8545657E-1,-1.6622432E-1,-1.8216053E-1,1.0285448E-1,-1.1543401E-1,7.823105E-2,-1.0964366E-1,7.4512647E-3,-1.3459119E-1,5.952376E-2,-1.137322E-1,-1.324812E-1,1.2122788E-1,-1.4339167E-1,1.4072566E-2,-1.01154104E-1,1.09470226E-1,-1.28729E-1,5.2149028E-2,-1.0494131E-1],"split_indices":[13,11,3,9,3,6,7,29,0,28,21,19,25,6,13,0,10,14,9,11,27,0,25,14,3,12,13,11,18,0,0,0,0,0,0,0,0,0,0,0,0,0,0,0,0,0,0,0,0,0,0,0,0,0,0],"split_type":[0,0,0,0,0,0,0,0,0,0,0,0,0,0,0,0,0,0,0,0,0,0,0,0,0,0,0,0,0,0,0,0,0,0,0,0,0,0,0,0,0,0,0,0,0,0,0,0,0,0,0,0,0,0,0],"sum_hessian":[5.1978383E4,2.0852467E4,3.1125916E4,1.7537104E4,3.3153623E3,1.8666943E4,1.2458974E4,1.7529932E4,7.171508E0,1.9111177E3,1.4042445E3,1.6097252E4,2.5696917E3,6.8614736E3,5.5974995E3,1.3463413E0,1.7528586E4,1.384699E3,5.264187E2,3.605548E1,1.368189E3,4.9626584E2,1.5600986E4,1.4665676E3,1.103124E3,1.7424164E3,5.1190576E3,1.0813055E3,4.516194E3,1.7478564E0,1.7526838E4,8.144912E2,5.702078E2,4.7743787E2,4.898084E1,2.8588455E0,3.3196636E1,2.3033722E1,1.3451553E3,2.1576375E2,2.805021E2,1.5258859E4,3.4212607E2,3.0199933E2,1.1645684E3,9.576071E2,1.4551695E2,1.582103E3,1.6031335E2,3.6331443E3,1.4859133E3,7.3617224E2,3.451333E2,4.4303806E2,4.0731558E3],"tree_param":{"num_deleted":"0","num_feature":"30","num_nodes":"55","size_leaf_vector":"1"}},{"base_weights":[-1.0450388E-3,9.738165E-1,-6.392485E-1,1.1013283E0,3.2141334E-1,-9.2771333E-1,-2.2467615E-1,1.1022646E0,-1.004663E-1,-7.680845E-2,8.8078547E-1,-1.0663444E0,-5.380454E-1,1.13511816E-1,-6.263295E-1,-2.298876E-1,1.1027275E0,-4.18784E-1,8.532675E-1,-1.7344829E0,9.53226E-1,-1.0978937E0,1.1969634E-1,1.5595155E0,-6.866E-1,2.995576E-1,-9.1400677E-1,-3.1300414E-2,-1.072112E0,-1.9137536E-1,1.10316984E-1,2.2126146E-2,-1.3948837E-1,1.09600045E-1,-1.4836699E-1,-2.6568192E-1,-1.5731387E-1,-1.6604714E-1,1.0041292E-1,-1.1189258E-1,5.6736108E-2,-1.2918203E-1,1.7555311E-1,3.9210856E-2,3.204443E-1,-1.1327686E-2,-1.1335869E-1,5.507195E-2,-5.754304E-2,1.2784101E-1,-1.3073157E-1,-9.455604E-2,6.626509E-2,1.3326353E-1,-1.21812716E-1],"categories":[],"categories_nodes":[],"categories_segments":[],"categories_sizes":[],"default_left":[0,0,0,0,0,0,0,0,0,0,0,0,0,0,0,0,0,0,0,0,0,0,0,0,0,0,0,0,0,0,0,0,0,0,0,0,0,0,0,0,0,0,0,0,0,0,0,0,0,0,0,0,0,0,0],"id":16,"left_children":[1,3,5,7,9,11,13,15,-1,17,19,21,23,25,27,-1,29,31,33,35,37,39,41,43,45,47,49,51,53,-1,-1,-1,-1,-1,-1,-1,-1,-1,-1,-1,-1,-1,-1,-1,-1,-1,-1,-1,-1,-1,-1,-1,-1,-1,-1],"loss_changes":[3.0180283E4,1.5962441E3,3.5057393E3,3.276367E1,6.993503E2,9.3328516E2,1.6341912E3,2.7798828E1,0E0,5.8390674E2,2.489939E2,4.772168E2,1.4152388E3,1.2489595E3,1.4586714E3,0E0,2.3521484E1,8.388026E2,2.8160165E2,1.1097107E0,1.7077087E2,4.3561914E2,7.671671E2,5.757297E2,1.0861675E3,1.2159021E3,8.653745E2,1.4956422E3,1.1055386E3,0E0,0E0,0E0,0E0,0E0,0E0,0E0,0E0,0E0,0E0,0E0,0E0,0E0,0E0,0E0,0E0,0E0,0E0,0E0,0E0,0E0,0E0,0E0,0E0,0E0,0E0],"parents":[2147483647,0,0,1,1,2,2,3,3,4,4,5,5,6,6,7,7,9,9,10,10,11,11,12,12,13,13,14,14,16,16,17,17,18,18,19,19,20,20,21,21,22,22,23,23,24,24,25,25,26,26,27,27,28,28],"right_children":[2,4,6,8,10,12,14,16,-1,18,20,22,24,26,28,-1,30,32,34,36,38,40,42,44,46,48,50,52,54,-1,-1,-1,-1,-1,-1,-1,-1,-1,-1,-1,-1,-1,-1,-1,-1,-1,-1,-1,-1,-1,-1,-1,-1,-1,-1],"split_conditions":[-1.7860076E0,-1.9403781E0,7.4178904E-1,5.7732815E-1,1.8989279E0,6.890384E-1,-4.4045914E-2,-9.2726654E-1,-1.004663E-1,2.2497032E0,-8.742564E-1,1.2048786E0,6.995888E-1,1.278389E0,-6.151594E-2,-2.298876E-1,4.6490952E-2,-1.9176376E-1,-1.4046595E0,-1.4170201E0,5.4119116E-1,1.7856927E0,1.3461169E0,1.350857E0,-2.1396725E-1,1.0942225E0,-2.4419105E0,3.7382898E-1,-1.8408399E0,-1.9137536E-1,1.10316984E-1,2.2126146E-2,-1.3948837E-1,1.09600045E-1,-1.4836699E-1,-2.6568192E-1,-1.5731387E-1,-1.6604714E-1,1.0041292E-1,-1.1189258E-1,5.6736108E-2,-1.2918203E-1,1.7555311E-1,3.9210856E-2,3.204443E-1,-1.1327686E-2,-1.1335869E-1,5.507195E-2,-5.754304E-2,1.2784101E-1,-1.3073157E-1,-9.455604E-2,6.626509E-2,1.3326353E-1,-1.21812716E-1],"split_indices":[13,11,3,9,3,6,11,29,0,28,21,25,6,2,20,0,10,14,9,11,17,21,11,15,25,0,18,24,12,0,0,0,0,0,0,0,0,0,0,0,0,0,0,0,0,0,0,0,0,0,0,0,0,0,0],"split_type":[0,0,0,0,0,0,0,0,0,0,0,0,0,0,0,0,0,0,0,0,0,0,0,0,0,0,0,0,0,0,0,0,0,0,0,0,0,0,0,0,0,0,0,0,0,0,0,0,0,0,0,0,0,0,0],"sum_hessian":[4.850688E4,1.9191367E4,2.9315512E4,1.6053108E4,3.1382576E3,1.7286266E4,1.2029246E4,1.6046451E4,6.6576257E0,1.8336963E3,1.3045614E3,1.2748893E4,4.537373E3,6.5309614E3,5.498285E3,1.5079556E0,1.6044943E4,1.3411313E3,4.9256497E2,3.4542835E1,1.2700186E3,1.2418625E4,3.3026752E2,2.9946674E2,4.2379067E3,5.5303306E3,1.0006308E3,2.3553894E3,3.1428958E3,1.7181795E0,1.6043225E4,8.104672E2,5.3066406E2,4.4669833E2,4.5866634E1,2.8401482E0,3.1702686E1,2.3657772E1,1.2463608E3,1.2264058E4,1.545668E2,1.7740228E2,1.5286522E2,1.7588167E2,1.2358507E2,1.8571304E3,2.3807761E3,4.297205E3,1.2331254E3,1.5186137E2,8.487694E2,1.01620593E3,1.3391833E3,1.7944588E2,2.9634497E3],"tree_param":{"num_deleted":"0","num_feature":"30","num_nodes":"55","size_leaf_vector":"1"}},{"base_weights":[-1.347241E-3,1.0412643E0,-5.6506324E-1,1.0898451E0,4.3056628E-1,-8.6626816E-1,-1.5689123E-1,1.091081E0,-1.13078736E-1,7.24551E-1,-1.348094E0,-9.719016E-1,-2.8969252E-1,4.7838134E-1,-4.0262866E-1,1.0914419E0,-1.4614269E-1,8.8412744E-1,-1.6717578E0,-1.8590581E-1,-1.2850752E0,-5.352749E-1,-1.0644506E0,2.6473308E-1,-9.6871746E-1,6.2244004E-1,-1.2579766E-1,6.867465E-2,-7.606722E-1,-8.03689E-2,1.0916767E-1,9.6825466E-2,-1.7969017E-1,-1.3289058E-1,-2.0738904E-1,-1.4209917E-1,-1.1837342E-1,-7.6689295E-2,8.050207E-2,7.143342E-3,-1.10579245E-1,8.8905774E-2,-6.471153E-2,-1.18754685E-1,8.992124E-2,7.372239E-2,-8.330597E-2,-9.3172416E-2,3.9780863E-2,3.2122295E-2,-9.588457E-2],"categories":[],"categories_nodes":[],"categories_segments":[],"categories_sizes":[],"default_left":[0,0,0,0,0,0,0,0,0,0,0,0,0,0,0,0,0,0,0,0,0,0,0,0,0,0,0,0,0,0,0,0,0,0,0,0,0,0,0,0,0,0,0,0,0,0,0,0,0,0,0],"id":17,"left_children":[1,3,5,7,9,11,13,15,-1,17,19,21,23,25,27,29,-1,31,33,-1,35,37,39,41,43,45,-1,47,49,-1,-1,-1,-1,-1,-1,-1,-1,-1,-1,-1,-1,-1,-1,-1,-1,-1,-1,-1,-1,-1,-1],"loss_changes":[2.6636133E4,4.7138477E2,3.6163096E3,4.1664062E1,6.146544E2,1.0305684E3,1.9501973E3,1.5160156E1,0E0,3.868521E2,2.9824524E0,5.7745215E2,9.8741284E2,8.7240967E2,1.5200607E3,7.4296875E0,0E0,2.1500049E2,5.9667816E0,0E0,4.0795898E-1,7.778607E2,5.542705E2,8.2279956E2,4.8293127E2,5.382893E2,0E0,1.2811008E3,1.0978264E3,0E0,0E0,0E0,0E0,0E0,0E0,0E0,0E0,0E0,0E0,0E0,0E0,0E0,0E0,0E0,0E0,0E0,0E0,0E0,0E0,0E0,0E0],"parents":[2147483647,0,0,1,1,2,2,3,3,4,4,5,5,6,6,7,7,9,9,10,10,11,11,12,12,13,13,14,14,15,15,17,17,18,18,20,20,21,21,22,22,23,23,24,24,25,25,27,27,28,28],"right_children":[2,4,6,8,10,12,14,16,-1,18,20,22,24,26,28,30,-1,32,34,-1,36,38,40,42,44,46,-1,48,50,-1,-1,-1,-1,-1,-1,-1,-1,-1,-1,-1,-1,-1,-1,-1,-1,-1,-1,-1,-1,-1,-1],"split_conditions":[-2.6373317E0,-1.4170201E0,7.4178904E-1,1.264073E0,5.222757E-1,1.066889E0,-8.0741286E-1,1.9894891E0,-1.13078736E-1,1.066889E0,-8.8270897E-1,-8.0741286E-1,-7.0394987E-1,1.2332667E0,-1.161863E-1,-7.032178E-1,-1.4614269E-1,-6.427723E-2,-1.8516389E-1,-1.8590581E-1,2.1474127E-2,1.3280393E0,-9.869141E-1,-5.064713E-1,1.7856927E0,1.5478437E0,-1.2579766E-1,-5.418254E-1,-3.5456428E-1,-8.03689E-2,1.0916767E-1,9.6825466E-2,-1.7969017E-1,-1.3289058E-1,-2.0738904E-1,-1.4209917E-1,-1.1837342E-1,-7.6689295E-2,8.050207E-2,7.143342E-3,-1.10579245E-1,8.8905774E-2,-6.471153E-2,-1.18754685E-1,8.992124E-2,7.372239E-2,-8.330597E-2,-9.3172416E-2,3.9780863E-2,3.2122295E-2,-9.588457E-2],"split_indices":[13,11,3,8,14,6,13,6,0,6,8,13,9,2,7,10,0,28,3,0,26,10,19,12,21,0,0,5,19,0,0,0,0,0,0,0,0,0,0,0,0,0,0,0,0,0,0,0,0,0,0],"split_type":[0,0,0,0,0,0,0,0,0,0,0,0,0,0,0,0,0,0,0,0,0,0,0,0,0,0,0,0,0,0,0,0,0,0,0,0,0,0,0,0,0,0,0,0,0,0,0,0,0,0,0],"sum_hessian":[4.5317836E4,1.5903302E4,2.9414533E4,1.4730695E4,1.1726066E3,1.6924332E4,1.2490202E4,1.472301E4,7.685643E0,1.0067922E3,1.6581436E2,1.4303185E4,2.6211467E3,3.4835898E3,9.006612E3,1.4721501E4,1.5092087E0,9.4452484E2,6.2267303E1,1.5076042E1,1.5073833E2,2.5027102E3,1.1800475E4,1.4432993E3,1.1778475E3,3.2173044E3,2.6628543E2,3.8886611E3,5.117951E3,1.4000511E0,1.4720101E4,9.16408E2,2.8116837E1,3.593464E1,2.6332666E1,5.882353E1,9.1914795E1,2.1343062E3,3.6840408E2,4.1438342E2,1.1386091E4,8.5673486E2,5.865644E2,1.0546578E3,1.2318972E2,2.982585E3,2.3471962E2,9.622086E2,2.9264524E3,7.92238E2,4.325713E3],"tree_param":{"num_deleted":"0","num_feature":"30","num_nodes":"51","size_leaf_vector":"1"}},{"base_weights":[-1.4189277E-3,1.028921E0,-5.3980064E-1,1.0790173E0,4.1456318E-1,-8.4215325E-1,-1.4665027E-1,1.0801724E0,-1.26716E-1,6.97703E-1,-1.3120247E0,-3.2043082E-1,-9.607354E-1,4.4415325E-1,-3.7543342E-1,1.0806332E0,-9.7764246E-2,8.521802E-1,-1.6001608E0,-1.7429225E-1,-1.2549932E-1,-1.1760353E0,1.8593024E-1,-9.962086E-1,7.956488E-1,5.760053E-1,-1.2302413E-1,1.1365618E0,-4.785325E-1,1.0844715E-1,9.164937E-2,9.335754E-2,-1.7273982E-1,-1.2917969E-1,-1.9412601E-1,-1.1222404E-1,-1.3496071E-1,-8.3477624E-2,8.385002E-2,-1.0263299E-1,1.68027E-2,1.21916234E-1,-1.1355481E-1,6.827875E-2,-7.625645E-2,1.3602589E-1,-1.342945E-1,-1.3251975E-2,-8.8934146E-2],"categories":[],"categories_nodes":[],"categories_segments":[],"categories_sizes":[],"default_left":[0,0,0,0,0,0,0,0,0,0,0,0,0,0,0,0,0,0,0,0,0,0,0,0,0,0,0,0,0,0,0,0,0,0,0,0,0,0,0,0,0,0,0,0,0,0,0,0,0],"id":18,"left_children":[1,3,5,7,9,11,13,15,-1,17,19,21,23,25,27,29,-1,31,33,-1,-1,35,37,39,41,43,-1,45,47,-1,-1,-1,-1,-1,-1,-1,-1,-1,-1,-1,-1,-1,-1,-1,-1,-1,-1,-1,-1],"loss_changes":[2.3524707E4,4.4749707E2,3.3108848E3,3.783789E1,5.381567E2,9.7378516E2,1.6370331E3,1.3811523E1,0E0,3.3673035E2,1.6259766E0,1.2641733E3,8.000713E2,7.4712054E2,1.361445E3,7.479492E0,0E0,1.8762518E2,3.78862E0,0E0,0E0,8.61438E0,1.2220425E3,4.4115723E2,2.0955452E2,4.48594E2,0E0,3.1109454E2,1.1617135E3,0E0,0E0,0E0,0E0,0E0,0E0,0E0,0E0,0E0,0E0,0E0,0E0,0E0,0E0,0E0,0E0,0E0,0E0,0E0,0E0],"parents":[2147483647,0,0,1,1,2,2,3,3,4,4,5,5,6,6,7,7,9,9,10,10,11,11,12,12,13,13,14,14,15,15,17,17,18,18,21,21,22,22,23,23,24,24,25,25,27,27,28,28],"right_children":[2,4,6,8,10,12,14,16,-1,18,20,22,24,26,28,30,-1,32,34,-1,-1,36,38,40,42,44,-1,46,48,-1,-1,-1,-1,-1,-1,-1,-1,-1,-1,-1,-1,-1,-1,-1,-1,-1,-1,-1,-1],"split_conditions":[-2.6373317E0,-1.4170201E0,7.4178904E-1,1.9894891E0,5.222757E-1,-9.7546273E-1,-8.0741286E-1,1.264073E0,-1.26716E-1,1.066889E0,-8.8270897E-1,-7.689886E-1,1.7856927E0,1.2332667E0,-4.9628687E0,2.1793187E0,-9.7764246E-2,-6.427723E-2,-1.8516389E-1,-1.7429225E-1,-1.2549932E-1,1.108041E0,6.890384E-1,1.2048786E0,-9.869141E-1,1.5478437E0,-1.2302413E-1,-4.4045914E-2,5.4512876E-3,1.0844715E-1,9.164937E-2,9.335754E-2,-1.7273982E-1,-1.2917969E-1,-1.9412601E-1,-1.1222404E-1,-1.3496071E-1,-8.3477624E-2,8.385002E-2,-1.0263299E-1,1.68027E-2,1.21916234E-1,-1.1355481E-1,6.827875E-2,-7.625645E-2,1.3602589E-1,-1.342945E-1,-1.3251975E-2,-8.8934146E-2],"split_indices":[13,11,3,6,14,9,13,8,0,6,8,0,21,2,6,16,0,28,3,0,0,6,6,25,19,0,0,11,7,0,0,0,0,0,0,0,0,0,0,0,0,0,0,0,0,0,0,0,0],"split_type":[0,0,0,0,0,0,0,0,0,0,0,0,0,0,0,0,0,0,0,0,0,0,0,0,0,0,0,0,0,0,0,0,0,0,0,0,0,0,0,0,0,0,0,0,0,0,0,0,0],"sum_hessian":[4.2406543E4,1.4553517E4,2.7853027E4,1.3455562E4,1.0979545E3,1.5743972E4,1.2109056E4,1.34494795E4,6.082207E0,9.4378143E2,1.5417299E2,2.9164143E3,1.2827558E4,3.3799136E3,8.729142E3,1.3446943E4,2.5365164E0,8.8492053E2,5.88609E1,1.4565294E1,1.396077E2,1.0837931E3,1.8326211E3,1.2574036E4,2.5352153E2,3.1337957E3,2.4611809E2,5.565824E2,8.172559E3,1.3134207E4,3.1273602E2,8.584707E2,2.6449825E1,3.3428074E1,2.5432827E1,8.3306714E2,2.50726E2,7.1460474E2,1.1180165E3,1.2257039E4,3.1699698E2,2.0822604E2,4.5295486E1,2.9027253E3,2.3107024E2,5.1093784E2,4.5644596E1,4.436849E3,3.7357102E3],"tree_param":{"num_deleted":"0","num_feature":"30","num_nodes":"49","size_leaf_vector":"1"}},{"base_weights":[-1.2530835E-3,1.0174794E0,-5.139973E-1,1.0692339E0,3.9898595E-1,-8.1715924E-1,-1.3622715E-1,1.0703982E0,-1.2337109E-1,6.7108446E-1,-1.2814659E0,-8.999494E-1,-5.4252565E-2,3.143857E-1,-4.05355E-1,1.0708991E0,-8.454122E-2,8.202429E-1,-1.5383525E0,-1.6449136E-1,-1.22965395E-1,-4.250649E-1,-1.0692034E0,5.6304705E-1,-8.7827104E-1,6.4758056E-1,-4.0382296E-1,2.9553968E-1,-7.491088E-1,1.0751627E-1,8.915555E-2,8.987992E-2,-1.6652668E-1,-1.2586966E-1,-1.8305337E-1,2.1065108E-2,-8.2381696E-2,-1.09250784E-1,3.9366208E-2,8.4734105E-2,-1.312782E-1,1.0590743E-1,-1.12972856E-1,-1.3331664E-1,7.643823E-2,2.409502E-2,-1.3005838E-1,5.0335865E-2,-1.3371624E-1,-9.5393755E-2,1.9666515E-2],"categories":[],"categories_nodes":[],"categories_segments":[],"categories_sizes":[],"default_left":[0,0,0,0,0,0,0,0,0,0,0,0,0,0,0,0,0,0,0,0,0,0,0,0,0,0,0,0,0,0,0,0,0,0,0,0,0,0,0,0,0,0,0,0,0,0,0,0,0,0,0],"id":19,"left_children":[1,3,5,7,9,11,13,15,-1,17,19,21,23,25,27,29,-1,31,33,-1,-1,35,37,39,41,43,45,47,49,-1,-1,-1,-1,-1,-1,-1,-1,-1,-1,-1,-1,-1,-1,-1,-1,-1,-1,-1,-1,-1,-1],"loss_changes":[2.0765992E4,4.2562598E2,3.0285015E3,3.425293E1,4.715333E2,9.265879E2,1.4280967E3,1.2688477E1,0E0,2.9343634E2,6.850586E-1,1.0632998E3,7.315963E2,1.0540262E3,1.776496E3,8.425781E0,0E0,1.637818E2,2.3055725E0,0E0,0E0,8.821297E2,3.3304395E2,4.3964798E2,3.0127042E2,6.9702E2,8.0754614E2,8.24067E2,9.584746E2,0E0,0E0,0E0,0E0,0E0,0E0,0E0,0E0,0E0,0E0,0E0,0E0,0E0,0E0,0E0,0E0,0E0,0E0,0E0,0E0,0E0,0E0],"parents":[2147483647,0,0,1,1,2,2,3,3,4,4,5,5,6,6,7,7,9,9,10,10,11,11,12,12,13,13,14,14,15,15,17,17,18,18,21,21,22,22,23,23,24,24,25,25,26,26,27,27,28,28],"right_children":[2,4,6,8,10,12,14,16,-1,18,20,22,24,26,28,30,-1,32,34,-1,-1,36,38,40,42,44,46,48,50,-1,-1,-1,-1,-1,-1,-1,-1,-1,-1,-1,-1,-1,-1,-1,-1,-1,-1,-1,-1,-1,-1],"split_conditions":[-2.6373317E0,-1.4170201E0,7.4178904E-1,1.9894891E0,5.222757E-1,4.164047E0,-4.259361E-1,5.7732815E-1,-1.2337109E-1,1.066889E0,-8.8270897E-1,-6.488309E-1,-3.33678E-1,-8.279308E-2,-2.5221828E-1,2.1793187E0,-8.454122E-2,-6.427723E-2,-1.8516389E-1,-1.6449136E-1,-1.22965395E-1,-8.776505E-1,1.7856927E0,1.1607143E-1,-2.1880152E0,-1.051088E0,-3.593046E-1,2.690693E-1,1.279002E0,1.0751627E-1,8.915555E-2,8.987992E-2,-1.6652668E-1,-1.2586966E-1,-1.8305337E-1,2.1065108E-2,-8.2381696E-2,-1.09250784E-1,3.9366208E-2,8.4734105E-2,-1.312782E-1,1.0590743E-1,-1.12972856E-1,-1.3331664E-1,7.643823E-2,2.409502E-2,-1.3005838E-1,5.0335865E-2,-1.3371624E-1,-9.5393755E-2,1.9666515E-2],"split_indices":[13,11,3,6,14,28,13,9,0,6,8,13,25,12,28,16,0,28,3,0,0,9,21,23,13,10,2,17,6,0,0,0,0,0,0,0,0,0,0,0,0,0,0,0,0,0,0,0,0,0,0],"split_type":[0,0,0,0,0,0,0,0,0,0,0,0,0,0,0,0,0,0,0,0,0,0,0,0,0,0,0,0,0,0,0,0,0,0,0,0,0,0,0,0,0,0,0,0,0,0,0,0,0,0,0],"sum_hessian":[3.9753E4,1.3309125E4,2.6443873E4,1.2280765E4,1.0283601E3,1.466999E4,1.1773884E4,1.2275094E4,5.670833E0,8.855695E2,1.4279063E2,1.3233698E4,1.4362916E3,4.4024673E3,7.3714165E3,1.2272325E4,2.7680311E0,8.301548E2,5.5414757E1,1.397959E1,1.2881104E2,3.478213E3,9.755485E3,8.2132587E2,6.149658E2,3.0073713E3,1.3950958E3,2.4256968E3,4.9457197E3,1.1982472E4,2.8985416E2,8.053398E2,2.4814964E1,3.102637E1,2.4388388E1,1.3409138E3,2.137299E3,9.602759E3,1.5272601E2,7.137072E2,1.0761864E2,7.02805E1,5.446853E2,1.6688524E2,2.840486E3,8.119984E2,5.830975E2,2.1524175E3,2.7327942E2,4.0652822E3,8.8043756E2],"tree_param":{"num_deleted":"0","num_feature":"30","num_nodes":"51","size_leaf_vector":"1"}},{"base_weights":[-1.4508101E-3,1.0067674E0,-4.9123096E-1,1.0603713E0,3.8352215E-1,-6.3523775E-1,2.8421655E-1,1.0615472E0,-1.2006402E-1,6.445364E-1,-1.2542218E0,-1.09804615E-1,-7.996883E-1,-2.4791679E-1,9.033038E-1,1.0620319E0,-9.450371E-2,-1.3409382E-1,8.0049855E-1,-1.5911311E-1,-1.20893374E-1,1.7182142E-1,-1.0304626E0,4.8698165E-2,-9.0580827E-1,1.5663172E-1,-1.302897E0,9.897047E-1,-1.2992759E-1,1.0666368E-1,8.715648E-2,8.772723E-2,-1.7963378E-1,4.1950572E-2,-7.755671E-2,6.869784E-2,-1.2607926E-1,6.0357403E-2,-1.19744234E-1,-1.0418481E-1,-1.6211307E-2,-5.3760108E-2,7.917515E-2,-1.5740038E-1,-1.2336341E-1,1.1338804E-1,4.867534E-4],"categories":[],"categories_nodes":[],"categories_segments":[],"categories_sizes":[],"default_left":[0,0,0,0,0,0,0,0,0,0,0,0,0,0,0,0,0,0,0,0,0,0,0,0,0,0,0,0,0,0,0,0,0,0,0,0,0,0,0,0,0,0,0,0,0,0,0],"id":20,"left_children":[1,3,5,7,9,11,13,15,-1,17,19,21,23,25,27,29,-1,-1,31,-1,-1,33,35,37,39,41,43,45,-1,-1,-1,-1,-1,-1,-1,-1,-1,-1,-1,-1,-1,-1,-1,-1,-1,-1,-1],"loss_changes":[1.8373191E4,4.0601172E2,2.7966328E3,3.1055664E1,4.1332272E2,1.824873E3,1.2925547E3,1.1894531E1,0E0,2.590221E2,1.05667114E-1,1.3058406E3,1.4482441E3,9.0088525E2,3.464016E2,8.885742E0,0E0,0E0,1.5568121E2,0E0,0E0,9.0537933E2,4.67537E2,1.2379497E3,1.4463213E3,6.734064E2,9.044006E0,2.4785168E2,0E0,0E0,0E0,0E0,0E0,0E0,0E0,0E0,0E0,0E0,0E0,0E0,0E0,0E0,0E0,0E0,0E0,0E0,0E0],"parents":[2147483647,0,0,1,1,2,2,3,3,4,4,5,5,6,6,7,7,9,9,10,10,11,11,12,12,13,13,14,14,15,15,18,18,21,21,22,22,23,23,24,24,25,25,26,26,27,27],"right_children":[2,4,6,8,10,12,14,16,-1,18,20,22,24,26,28,30,-1,-1,32,-1,-1,34,36,38,40,42,44,46,-1,-1,-1,-1,-1,-1,-1,-1,-1,-1,-1,-1,-1,-1,-1,-1,-1,-1,-1],"split_conditions":[-2.6373317E0,-1.4170201E0,2.4508688E0,1.9894891E0,5.222757E-1,-8.0741286E-1,6.360534E-1,1.264073E0,-1.2006402E-1,6.855196E-1,-1.7701555E0,4.705392E-2,-5.011652E-1,7.148792E-1,1.3382245E0,2.1793187E0,-9.450371E-2,-1.3409382E-1,-6.427723E-2,-1.5911311E-1,-1.20893374E-1,-3.679644E-1,-1.8408399E0,-6.333113E-1,1.066889E0,9.417269E-2,-2.2459501E-1,9.183223E-1,-1.2992759E-1,1.0666368E-1,8.715648E-2,8.772723E-2,-1.7963378E-1,4.1950572E-2,-7.755671E-2,6.869784E-2,-1.2607926E-1,6.0357403E-2,-1.19744234E-1,-1.0418481E-1,-1.6211307E-2,-5.3760108E-2,7.917515E-2,-1.5740038E-1,-1.2336341E-1,1.1338804E-1,4.867534E-4],"split_indices":[13,11,3,6,14,13,10,8,0,3,9,26,19,2,13,16,0,0,28,0,0,9,12,15,6,27,7,9,0,0,0,0,0,0,0,0,0,0,0,0,0,0,0,0,0,0,0],"split_type":[0,0,0,0,0,0,0,0,0,0,0,0,0,0,0,0,0,0,0,0,0,0,0,0,0,0,0,0,0,0,0,0,0,0,0,0,0,0,0,0,0,0,0,0,0,0,0],"sum_hessian":[3.720536E4,1.2164186E4,2.5041176E4,1.1200183E4,9.6400336E2,2.1119328E4,3.9218464E3,1.1194891E4,5.291535E0,8.32009E2,1.3199438E2,5.0347036E3,1.6084625E4,2.109358E3,1.8124885E3,1.1192657E4,2.233151E0,6.004237E1,7.719666E2,1.1595929E1,1.2039845E2,3.8559849E3,1.1787188E3,1.7883138E3,1.4296312E4,1.5253069E3,5.84051E2,1.7446034E3,6.7885124E1,1.0923948E4,2.687097E2,7.504425E2,2.1524145E1,3.057256E3,7.9872876E2,1.3915273E2,1.039566E3,1.2377083E3,5.506056E2,1.20852295E4,2.2110815E3,7.288135E2,7.964934E2,1.14429565E2,4.696215E2,1.5216844E3,2.2291896E2],"tree_param":{"num_deleted":"0","num_feature":"30","num_nodes":"47","size_leaf_vector":"1"}},{"base_weights":[-1.5430676E-3,9.967919E-1,-4.685599E-1,1.05146E0,3.5600185E-1,-7.739877E-1,-1.1099749E-1,-1.5290813E-1,1.0545775E0,7.7871454E-1,-6.813282E-1,-3.086696E-1,-9.1638833E-1,8.767941E-1,-2.127869E-1,1.0552732E0,-1.5551539E-1,8.759423E-1,-1.4966729E0,-1.4490644E0,6.072949E-1,-1.1526712E0,1.2621722E-1,1.7912255E-1,-9.75168E-1,1.0869733E0,-2.2125163E0,-7.638808E-1,6.789715E-2,1.05593495E-1,-1.3587081E-1,9.3363754E-2,-1.410146E-1,-1.7739642E-1,-1.0809404E-1,-1.272919E-1,-2.7106747E-1,9.96968E-2,-1.2851809E-1,-1.0988009E-1,-1.309448E-1,-5.9772518E-2,7.18216E-2,8.099135E-2,-1.1598146E-1,-1.017155E-1,3.221718E-2,1.1425356E-1,-1.5525457E-1,-1.667748E-1,-4.6100947E-1,4.971404E-2,-9.903503E-2,-4.162105E-2,3.4888435E-2],"categories":[],"categories_nodes":[],"categories_segments":[],"categories_sizes":[],"default_left":[0,0,0,0,0,0,0,0,0,0,0,0,0,0,0,0,0,0,0,0,0,0,0,0,0,0,0,0,0,0,0,0,0,0,0,0,0,0,0,0,0,0,0,0,0,0,0,0,0,0,0,0,0,0,0],"id":21,"left_children":[1,3,5,7,9,11,13,-1,15,17,19,21,23,25,27,29,-1,31,33,35,37,39,41,43,45,47,49,51,53,-1,-1,-1,-1,-1,-1,-1,-1,-1,-1,-1,-1,-1,-1,-1,-1,-1,-1,-1,-1,-1,-1,-1,-1,-1,-1],"loss_changes":[1.6256188E4,3.8889453E2,2.5941206E3,8.397461E1,3.8421744E2,8.485952E2,1.1006104E3,0E0,2.0208984E1,1.3894873E2,2.5203722E2,1.1025225E3,6.3178906E2,6.6640656E2,1.5349387E3,1.7764648E1,0E0,8.0095825E1,1.0640488E0,3.1968597E1,7.169681E1,7.187622E0,8.502816E2,4.2351038E2,5.0741797E2,1.4229492E2,7.782538E1,9.5677466E2,8.945629E2,0E0,0E0,0E0,0E0,0E0,0E0,0E0,0E0,0E0,0E0,0E0,0E0,0E0,0E0,0E0,0E0,0E0,0E0,0E0,0E0,0E0,0E0,0E0,0E0,0E0,0E0],"parents":[2147483647,0,0,1,1,2,2,3,3,4,4,5,5,6,6,8,8,9,9,10,10,11,11,12,12,13,13,14,14,15,15,17,17,18,18,19,19,20,20,21,21,22,22,23,23,24,24,25,25,26,26,27,27,28,28],"right_children":[2,4,6,8,10,12,14,-1,16,18,20,22,24,26,28,30,-1,32,34,36,38,40,42,44,46,48,50,52,54,-1,-1,-1,-1,-1,-1,-1,-1,-1,-1,-1,-1,-1,-1,-1,-1,-1,-1,-1,-1,-1,-1,-1,-1,-1,-1],"split_conditions":[-2.6373317E0,-1.7701555E0,7.4178904E-1,1.3943997E-1,-8.3983146E-2,-8.776505E-1,-1.4046595E0,-1.5290813E-1,1.9894891E0,1.066889E0,4.631587E-1,-7.689886E-1,-9.869141E-1,4.6792623E-1,-9.030691E-2,-1.7355879E-1,-1.5551539E-1,1.0114347E0,5.4736847E-1,2.7407496E0,-2.2313435E-1,1.066889E0,-2.9504853E-1,-8.944844E-1,1.2048786E0,3.020576E0,-5.034535E-1,-4.4386563E-1,9.910479E-3,1.05593495E-1,-1.3587081E-1,9.3363754E-2,-1.410146E-1,-1.7739642E-1,-1.0809404E-1,-1.272919E-1,-2.7106747E-1,9.96968E-2,-1.2851809E-1,-1.0988009E-1,-1.309448E-1,-5.9772518E-2,7.18216E-2,8.099135E-2,-1.1598146E-1,-1.017155E-1,3.221718E-2,1.1425356E-1,-1.5525457E-1,-1.667748E-1,-4.6100947E-1,4.971404E-2,-9.903503E-2,-4.162105E-2,3.4888435E-2],"split_indices":[13,9,3,10,19,9,9,0,6,6,25,0,19,15,4,2,0,14,9,3,24,6,3,15,25,6,0,20,27,0,0,0,0,0,0,0,0,0,0,0,0,0,0,0,0,0,0,0,0,0,0,0,0,0,0],"split_type":[0,0,0,0,0,0,0,0,0,0,0,0,0,0,0,0,0,0,0,0,0,0,0,0,0,0,0,0,0,0,0,0,0,0,0,0,0,0,0,0,0,0,0,0,0,0,0,0,0,0,0,0,0,0,0],"sum_hessian":[3.486462E4,1.1111213E4,2.3753408E4,1.0237199E4,8.740133E2,1.2810008E4,1.0943401E4,1.1761378E1,1.02254375E4,6.2114545E2,2.5286789E2,3.0023826E3,9.807625E3,1.0216288E3,9.921772E3,1.0223308E4,2.1297846E0,5.9628125E2,2.4864183E1,1.5838232E2,9.448556E1,1.0204008E3,1.9819817E3,4.9932718E2,9.308298E3,9.571574E2,6.4471405E1,3.3475283E3,6.574244E3,1.0221069E4,2.2391167E0,5.8218005E2,1.4101186E1,1.2955712E1,1.1908471E1,1.4074109E2,1.7641232E1,7.8744705E1,1.5740852E1,7.6540704E2,2.5499379E2,8.9162427E2,1.0903575E3,3.396899E2,1.5963727E2,9.016698E3,2.915994E2,9.379799E2,1.9177483E1,5.391634E1,1.0555062E1,5.0947714E2,2.838051E3,2.414267E3,4.1599775E3],"tree_param":{"num_deleted":"0","num_feature":"30","num_nodes":"55","size_leaf_vector":"1"}},{"base_weights":[-1.5032409E-3,1.0129644E0,-4.3434286E-1,1.044674E0,3.8316426E-1,-7.528646E-1,-8.625509E-2,1.0475816E0,-2.225126E-1,-1.3085529E0,9.0655756E-1,-8.4356314E-1,1.8942881E-2,1.6302395E-1,-4.8013383E-1,1.049956E0,-1.199367E-1,-1.6351104E-1,-1.2441953E-1,-2.531865E0,9.766998E-1,-3.5811523E-1,-1.0449195E0,5.8233976E-1,-8.4917575E-1,3.366611E-1,-7.8266436E-1,8.7371206E-1,-6.882835E-1,1.0505658E-1,-9.384074E-2,-1.1803216E-1,-3.5438704E-1,9.959956E-2,-1.6809756E-1,-3.2584758E-3,-1.1111362E-1,-1.0709957E-1,3.6569655E-2,8.323052E-2,-1.3201134E-1,9.558943E-2,-1.1040266E-1,6.676035E-2,-2.6449126E-3,1.229877E-1,-1.1778196E-1,1.19013265E-1,-1.26688E-1,7.514565E-2,-8.597133E-2],"categories":[],"categories_nodes":[],"categories_segments":[],"categories_sizes":[],"default_left":[0,0,0,0,0,0,0,0,0,0,0,0,0,0,0,0,0,0,0,0,0,0,0,0,0,0,0,0,0,0,0,0,0,0,0,0,0,0,0,0,0,0,0,0,0,0,0,0,0,0,0],"id":22,"left_children":[1,3,5,7,9,11,13,15,-1,17,19,21,23,25,27,29,-1,-1,-1,31,33,35,37,39,41,43,45,47,49,-1,-1,-1,-1,-1,-1,-1,-1,-1,-1,-1,-1,-1,-1,-1,-1,-1,-1,-1,-1,-1,-1],"loss_changes":[1.4386686E4,1.9528516E2,2.546184E3,9.1015625E1,4.1846954E2,8.3946533E2,1.0776187E3,5.098535E1,0E0,3.1446838E-1,8.942062E1,1.0485435E3,6.1773444E2,1.1040093E3,1.1993394E3,1.22734375E1,0E0,0E0,0E0,6.055702E0,1.9829468E1,7.715322E2,2.793662E2,3.6532712E2,2.2972809E2,6.825361E2,8.309221E2,3.857555E2,9.107793E2,0E0,0E0,0E0,0E0,0E0,0E0,0E0,0E0,0E0,0E0,0E0,0E0,0E0,0E0,0E0,0E0,0E0,0E0,0E0,0E0,0E0,0E0],"parents":[2147483647,0,0,1,1,2,2,3,3,4,4,5,5,6,6,7,7,9,9,10,10,11,11,12,12,13,13,14,14,15,15,19,19,20,20,21,21,22,22,23,23,24,24,25,25,26,26,27,27,28,28],"right_children":[2,4,6,8,10,12,14,16,-1,18,20,22,24,26,28,30,-1,-1,-1,32,34,36,38,40,42,44,46,48,50,-1,-1,-1,-1,-1,-1,-1,-1,-1,-1,-1,-1,-1,-1,-1,-1,-1,-1,-1,-1,-1,-1],"split_conditions":[-3.0454953E0,5.341581E-1,7.4178904E-1,1.7390503E0,2.3294663E0,4.164047E0,1.4146253E-1,3.1606987E-1,-2.225126E-1,-1.7701555E0,9.8772854E-1,-6.488309E-1,-3.33678E-1,1.278389E0,-1.1696398E0,1.7723094E0,-1.199367E-1,-1.6351104E-1,-1.2441953E-1,1.9782009E0,7.242096E-1,2.2412127E-2,1.7856927E0,7.4294955E-1,-2.1880152E0,-1.8749045E-1,-1.8408399E0,-2.0275274E-1,-1.878707E0,1.0505658E-1,-9.384074E-2,-1.1803216E-1,-3.5438704E-1,9.959956E-2,-1.6809756E-1,-3.2584758E-3,-1.1111362E-1,-1.0709957E-1,3.6569655E-2,8.323052E-2,-1.3201134E-1,9.558943E-2,-1.1040266E-1,6.676035E-2,-2.6449126E-3,1.229877E-1,-1.1778196E-1,1.19013265E-1,-1.26688E-1,7.514565E-2,-8.597133E-2],"split_indices":[13,6,3,15,3,28,13,11,0,9,10,13,25,2,24,8,0,0,0,16,29,26,21,5,13,29,12,28,18,0,0,0,0,0,0,0,0,0,0,0,0,0,0,0,0,0,0,0,0,0,0],"split_type":[0,0,0,0,0,0,0,0,0,0,0,0,0,0,0,0,0,0,0,0,0,0,0,0,0,0,0,0,0,0,0,0,0,0,0,0,0,0,0,0,0,0,0,0,0,0,0,0,0,0,0],"sum_hessian":[3.2761895E4,9.797551E3,2.2964344E4,9.327274E3,4.7027563E2,1.1990832E4,1.0973512E4,9.319667E3,7.6075287E0,1.1076376E2,3.5951187E2,1.0729829E4,1.2610032E3,6.7206895E3,4.252822E3,9.310361E3,9.305783E0,1.4217234E1,9.654653E1,6.485627E0,3.5302625E2,3.1465725E3,7.583257E3,7.649139E2,4.9608926E2,5.678676E3,1.0420137E3,5.662999E2,3.686522E3,9.3079795E3,2.3823724E0,3.7045217E0,2.7811058E0,3.5110236E2,1.923914E0,2.1975964E3,9.4897626E2,7.4458564E3,1.3740047E2,6.7657983E2,8.833405E1,6.103522E1,4.3505405E2,2.9704966E3,2.7081794E3,1.7067036E2,8.7134326E2,4.9375714E2,7.2542755E1,3.9188904E2,3.294633E3],"tree_param":{"num_deleted":"0","num_feature":"30","num_nodes":"51","size_leaf_vector":"1"}},{"base_weights":[-1.675532E-3,1.0319864E0,-4.0301234E-1,1.0379206E0,-1.0668372E-1,-7.2791934E-1,-6.9905564E-2,1.0389092E0,-1.8569511E-1,-2.1467488E-1,-8.69149E-1,8.267171E-1,-1.8582445E-1,1.0398479E0,-1.3109367E-1,-6.352268E-1,7.987607E-1,-9.063451E-1,6.9916666E-1,1.0386454E0,-1.8762572E0,5.8278435E-1,-3.5147256E-1,1.04482606E-1,6.948901E-2,-1.0752418E-1,2.819326E-2,-1.1632913E-1,1.2646095E-1,-9.491661E-2,3.1191051E-2,1.11223176E-1,-1.1014934E-1,1.08003035E-1,-1.8546401E-1,-3.3246782E-1,-1.4310633E-1,8.1587136E-2,-9.238394E-2,-2.414988E-3,-7.882347E-2],"categories":[],"categories_nodes":[],"categories_segments":[],"categories_sizes":[],"default_left":[0,0,0,0,0,0,0,0,0,0,0,0,0,0,0,0,0,0,0,0,0,0,0,0,0,0,0,0,0,0,0,0,0,0,0,0,0,0,0,0,0],"id":23,"left_children":[1,3,5,7,-1,9,11,13,-1,15,17,19,21,23,-1,25,27,29,31,33,35,37,39,-1,-1,-1,-1,-1,-1,-1,-1,-1,-1,-1,-1,-1,-1,-1,-1,-1,-1],"loss_changes":[1.2776278E4,1.08387695E2,2.4009172E3,2.6509766E1,0E0,8.1383984E2,1.1387656E3,2.0305664E1,0E0,1.0339241E3,5.143633E2,7.2048346E2,1.2354043E3,1.4015625E1,0E0,6.920767E2,6.5183997E2,4.4908398E2,1.5339822E2,1.4135315E2,5.4278503E1,6.049572E2,1.1411216E3,0E0,0E0,0E0,0E0,0E0,0E0,0E0,0E0,0E0,0E0,0E0,0E0,0E0,0E0,0E0,0E0,0E0,0E0],"parents":[2147483647,0,0,1,1,2,2,3,3,5,5,6,6,7,7,9,9,10,10,11,11,12,12,13,13,15,15,16,16,17,17,18,18,19,19,20,20,21,21,22,22],"right_children":[2,4,6,8,-1,10,12,14,-1,16,18,20,22,24,-1,26,28,30,32,34,36,38,40,-1,-1,-1,-1,-1,-1,-1,-1,-1,-1,-1,-1,-1,-1,-1,-1,-1,-1],"split_conditions":[-3.6280148E0,5.7732815E-1,7.4178904E-1,1.9606259E0,-1.0668372E-1,-9.7546273E-1,-1.4046595E0,1.9894891E0,-1.8569511E-1,-1.0427E0,1.7856927E0,4.6792623E-1,-1.4713427E0,1.108041E0,-1.3109367E-1,1.3546766E0,2.4689768E-1,1.2048786E0,-9.869141E-1,8.977353E-1,-1.4170201E0,9.2394955E-2,4.343748E-2,1.04482606E-1,6.948901E-2,-1.0752418E-1,2.819326E-2,-1.1632913E-1,1.2646095E-1,-9.491661E-2,3.1191051E-2,1.11223176E-1,-1.1014934E-1,1.08003035E-1,-1.8546401E-1,-3.3246782E-1,-1.4310633E-1,8.1587136E-2,-9.238394E-2,-2.414988E-3,-7.882347E-2],"split_indices":[13,9,3,0,0,9,9,6,0,9,21,15,18,6,0,6,23,25,19,17,11,22,13,0,0,0,0,0,0,0,0,0,0,0,0,0,0,0,0,0,0],"split_type":[0,0,0,0,0,0,0,0,0,0,0,0,0,0,0,0,0,0,0,0,0,0,0,0,0,0,0,0,0,0,0,0,0,0,0,0,0,0,0,0,0],"sum_hessian":[3.0795602E4,8.612396E3,2.2183205E4,8.588618E3,2.3778292E1,1.1229219E4,1.0953986E4,8.586327E3,2.2909696E0,2.4237092E3,8.80551E3,1.2533442E3,9.700642E3,8.583456E3,2.8712556E0,1.713161E3,7.105483E2,8.601918E3,2.0359152E2,1.1627906E3,9.055357E1,1.7195225E3,7.981119E3,8.459347E3,1.24109146E2,1.1576136E3,5.555474E2,1.360478E2,5.745005E2,8.310046E3,2.9187277E2,1.6591379E2,3.7677723E1,1.1470109E3,1.5779844E1,1.9768755E1,7.078482E1,1.4895374E3,2.2998509E2,4.562728E3,3.418391E3],"tree_param":{"num_deleted":"0","num_feature":"30","num_nodes":"41","size_leaf_vector":"1"}},{"base_weights":[-1.4166924E-3,1.0250196E0,-3.8147545E-1,1.0309459E0,-1.0525447E-1,-5.3130174E-1,3.0844417E-1,1.0382332E0,5.658384E-1,-6.775417E-2,-7.104876E-1,-1.99749E-1,8.408595E-1,1.0411692E0,9.2024535E-1,-2.3607898E0,9.934159E-1,3.7378258E-1,-4.426584E-1,-8.479533E-1,6.700112E-2,-6.6707546E-1,6.1512786E-1,-1.4129732E0,9.045114E-1,1.0422776E-1,-1.9297047E-1,-1.8739635E-1,9.7780876E-2,-1.470333E-1,-5.8187693E-1,1.0408006E-1,-1.953706E-1,-2.197676E-2,8.7676525E-2,-6.913217E-2,1.284418E-1,8.335746E-3,-9.712768E-2,7.534417E-2,-5.8428805E-2,8.223849E-2,-1.15215085E-1,9.735214E-2,-1.4453253E-1,-1.3155636E-1,-2.751909E-1,9.6407145E-2,-1.2192219E-1],"categories":[],"categories_nodes":[],"categories_segments":[],"categories_sizes":[],"default_left":[0,0,0,0,0,0,0,0,0,0,0,0,0,0,0,0,0,0,0,0,0,0,0,0,0,0,0,0,0,0,0,0,0,0,0,0,0,0,0,0,0,0,0,0,0,0,0,0,0],"id":24,"left_children":[1,3,5,7,-1,9,11,13,15,17,19,21,23,25,27,29,31,33,35,37,39,41,43,45,47,-1,-1,-1,-1,-1,-1,-1,-1,-1,-1,-1,-1,-1,-1,-1,-1,-1,-1,-1,-1,-1,-1,-1,-1],"loss_changes":[1.1324076E4,9.765918E1,2.1899426E3,2.5924805E1,0E0,1.4456299E3,1.02300366E3,1.7089844E0,1.5609277E2,8.035667E2,1.3416523E3,7.372677E2,2.6615625E2,2.672754E1,3.328871E1,4.058297E1,1.7102333E1,6.657063E2,1.1283091E3,1.2251807E3,8.4400494E2,8.897673E2,5.225751E2,3.0446625E0,2.2838184E2,0E0,0E0,0E0,0E0,0E0,0E0,0E0,0E0,0E0,0E0,0E0,0E0,0E0,0E0,0E0,0E0,0E0,0E0,0E0,0E0,0E0,0E0,0E0,0E0],"parents":[2147483647,0,0,1,1,2,2,3,3,5,5,6,6,7,7,8,8,9,9,10,10,11,11,12,12,13,13,14,14,15,15,16,16,17,17,18,18,19,19,20,20,21,21,22,22,23,23,24,24],"right_children":[2,4,6,8,-1,10,12,14,16,18,20,22,24,26,28,30,32,34,36,38,40,42,44,46,48,-1,-1,-1,-1,-1,-1,-1,-1,-1,-1,-1,-1,-1,-1,-1,-1,-1,-1,-1,-1,-1,-1,-1,-1],"split_conditions":[-3.6280148E0,5.7732815E-1,2.4508688E0,1.108041E0,-1.0525447E-1,-8.0741286E-1,6.1066306E-1,5.341581E-1,3.1130207E-1,-3.1700367E-1,3.591141E0,1.3904194E0,-3.257009E-1,1.7390503E0,9.4382966E-1,2.1146722E0,-2.5551286E-1,1.08962186E-1,-8.2593083E-1,-5.011652E-1,-4.9450284E-1,-8.21844E-1,-1.7480612E-1,2.1124449E0,1.3382245E0,1.0422776E-1,-1.9297047E-1,-1.8739635E-1,9.7780876E-2,-1.470333E-1,-5.8187693E-1,1.0408006E-1,-1.953706E-1,-2.197676E-2,8.7676525E-2,-6.913217E-2,1.284418E-1,8.335746E-3,-9.712768E-2,7.534417E-2,-5.8428805E-2,8.223849E-2,-1.15215085E-1,9.735214E-2,-1.4453253E-1,-1.3155636E-1,-2.751909E-1,9.6407145E-2,-1.2192219E-1],"split_indices":[13,9,3,6,0,13,10,6,25,11,28,4,22,15,10,15,29,20,13,19,25,20,28,1,13,0,0,0,0,0,0,0,0,0,0,0,0,0,0,0,0,0,0,0,0,0,0,0,0],"split_type":[0,0,0,0,0,0,0,0,0,0,0,0,0,0,0,0,0,0,0,0,0,0,0,0,0,0,0,0,0,0,0,0,0,0,0,0,0,0,0,0,0,0,0,0,0,0,0,0,0],"sum_hessian":[2.902619E4,7.8429087E3,2.1183281E4,7.821103E3,2.1805696E1,1.7403979E4,3.779302E3,7.699239E3,1.2186432E2,4.852391E3,1.2551588E4,1.9339559E3,1.8453462E3,7.5046685E3,1.945704E2,1.4958303E1,1.0690601E2,2.228187E3,2.6242043E3,1.066572E4,1.8858687E3,1.2291995E3,7.047564E2,5.010193E1,1.7952443E3,7.502518E3,2.1499367E0,3.2904875E0,1.912799E2,1.302855E1,1.9297531E0,1.0585095E2,1.0550609E0,1.02233386E3,1.205853E3,2.2944507E3,3.297537E2,1.247232E3,9.418487E3,9.180806E2,9.67788E2,3.0180115E2,9.273984E2,6.0078406E2,1.0397238E2,4.8552227E1,1.5497038E0,1.7468013E3,4.8442986E1],"tree_param":{"num_deleted":"0","num_feature":"30","num_nodes":"49","size_leaf_vector":"1"}},{"base_weights":[-1.3141138E-3,1.0190848E0,-3.626682E-1,1.0250112E0,-1.0390885E-1,-9.2892635E-1,-1.7740688E-1,1.0325305E0,5.509107E-1,-9.777082E-1,4.9035674E-1,1.9486849E-1,-4.4126487E-1,1.0357368E0,9.050152E-1,-2.1746283E0,9.848665E-1,-9.040235E-2,-1.0601614E-1,-1.2040289E-1,1.2292788E0,7.069132E-1,-3.3834446E-2,-6.2248397E-1,3.8045892E-1,1.0368967E-1,-1.7828985E-1,-1.2755875E-1,9.842806E-2,-1.4148149E-1,-4.3693882E-1,1.03488244E-1,-1.833484E-1,-1.2238085E-1,8.914266E-2,1.3328627E-1,-9.65316E-2,8.798022E-2,-1.2160211E-1,-9.8048314E-2,2.1326087E-2,4.1878004E-2,-8.034622E-2,-1.2164116E-1,6.6901475E-2],"categories":[],"categories_nodes":[],"categories_segments":[],"categories_sizes":[],"default_left":[0,0,0,0,0,0,0,0,0,0,0,0,0,0,0,0,0,0,0,0,0,0,0,0,0,0,0,0,0,0,0,0,0,0,0,0,0,0,0,0,0,0,0,0,0],"id":25,"left_children":[1,3,5,7,-1,9,11,13,15,17,19,21,23,25,27,29,31,33,-1,-1,35,37,39,41,43,-1,-1,-1,-1,-1,-1,-1,-1,-1,-1,-1,-1,-1,-1,-1,-1,-1,-1,-1,-1],"loss_changes":[1.0061507E4,8.81084E1,2.1138052E3,2.4798828E1,0E0,3.4439404E2,1.4916565E3,1.9267578E0,1.360842E2,3.5126904E2,2.0896967E2,7.3768805E2,1.3235729E3,2.4161133E1,3.231865E1,2.0276283E1,1.5765236E1,4.5671173E2,0E0,0E0,2.7632019E1,6.476506E2,1.0189535E3,1.3724802E3,7.409906E2,0E0,0E0,0E0,0E0,0E0,0E0,0E0,0E0,0E0,0E0,0E0,0E0,0E0,0E0,0E0,0E0,0E0,0E0,0E0,0E0],"parents":[2147483647,0,0,1,1,2,2,3,3,5,5,6,6,7,7,8,8,9,9,10,10,11,11,12,12,13,13,14,14,15,15,16,16,17,17,20,20,21,21,22,22,23,23,24,24],"right_children":[2,4,6,8,-1,10,12,14,16,18,20,22,24,26,28,30,32,34,-1,-1,36,38,40,42,44,-1,-1,-1,-1,-1,-1,-1,-1,-1,-1,-1,-1,-1,-1,-1,-1,-1,-1,-1,-1],"split_conditions":[-3.6280148E0,5.7732815E-1,-2.9504853E-1,1.108041E0,-1.0390885E-1,3.020576E0,-4.259361E-1,5.341581E-1,3.1130207E-1,-1.7860076E0,-7.689886E-1,-7.137033E-1,6.224646E-1,1.7390503E0,2.3294663E0,2.1146722E0,-2.5551286E-1,1.4113657E-1,-1.0601614E-1,-1.2040289E-1,-1.6803147E0,2.8798145E-1,-5.31439E-1,-1.4713427E0,-2.4973273E-1,1.0368967E-1,-1.7828985E-1,-1.2755875E-1,9.842806E-2,-1.4148149E-1,-4.3693882E-1,1.03488244E-1,-1.833484E-1,-1.2238085E-1,8.914266E-2,1.3328627E-1,-9.65316E-2,8.798022E-2,-1.2160211E-1,-9.8048314E-2,2.1326087E-2,4.1878004E-2,-8.034622E-2,-1.2164116E-1,6.6901475E-2],"split_indices":[13,9,3,6,0,6,13,6,25,13,0,18,19,15,3,15,29,22,0,0,9,11,10,18,29,0,0,0,0,0,0,0,0,0,0,0,0,0,0,0,0,0,0,0,0],"split_type":[0,0,0,0,0,0,0,0,0,0,0,0,0,0,0,0,0,0,0,0,0,0,0,0,0,0,0,0,0,0,0,0,0,0,0,0,0,0,0,0,0,0,0,0,0],"sum_hessian":[2.7285268E4,7.1351284E3,2.015014E4,7.1151426E3,1.9985464E1,4.966335E3,1.5183805E4,7.0028975E3,1.1224535E2,4.801611E3,1.6472398E2,6.298109E3,8.885696E3,6.824182E3,1.787152E2,1.4865938E1,9.737942E1,4.0843237E2,4.3931787E3,4.983056E1,1.1489342E2,1.9438711E3,4.354238E3,7.280362E3,1.6053342E3,6.8220073E3,2.175094E0,5.7390976E0,1.7297609E2,1.22646265E1,2.6013112E0,9.630318E1,1.0762417E0,1.894677E2,2.1896466E2,1.100899E2,4.8035235E0,1.7840146E3,1.5985645E2,9.0067755E2,3.4535603E3,1.0778134E3,6.202549E3,2.451969E2,1.3601373E3],"tree_param":{"num_deleted":"0","num_feature":"30","num_nodes":"45","size_leaf_vector":"1"}},{"base_weights":[-1.3976285E-3,1.0136639E0,-3.4380043E-1,1.0195944E0,-1.0263138E-1,-9.204157E-1,-1.6589503E-1,1.0273477E0,5.3677267E-1,-9.692975E-1,4.7538358E-1,1.6115941E-1,-4.2952374E-1,1.0307204E0,8.939106E-1,-2.012017E0,9.7660756E-1,-8.7816305E-2,-1.0543301E-1,-1.1835551E-1,1.1885823E0,2.624843E-1,-9.2207354E-1,-9.672533E-1,-1.7285287E-1,1.0319332E-1,-1.6564886E-1,9.506284E-2,-2.1597436E-1,-3.47694E-1,-1.3240896E-1,1.0293899E-1,-1.7233185E-1,-1.2036928E-1,8.3245955E-2,1.2893832E-1,-9.426349E-2,-2.1751716E-3,7.287913E-2,-1.2544434E-1,6.158451E-2,-5.7035177E-3,-1.1162182E-1,-8.405613E-2,5.478777E-3],"categories":[],"categories_nodes":[],"categories_segments":[],"categories_sizes":[],"default_left":[0,0,0,0,0,0,0,0,0,0,0,0,0,0,0,0,0,0,0,0,0,0,0,0,0,0,0,0,0,0,0,0,0,0,0,0,0,0,0,0,0,0,0,0,0],"id":26,"left_children":[1,3,5,7,-1,9,11,13,15,17,19,21,23,25,27,29,31,33,-1,-1,35,37,39,41,43,-1,-1,-1,-1,-1,-1,-1,-1,-1,-1,-1,-1,-1,-1,-1,-1,-1,-1,-1,-1],"loss_changes":[8.941747E3,7.9555176E1,1.9733232E3,2.3671875E1,0E0,3.099348E2,1.2677804E3,1.9448242E0,1.18962746E2,3.284077E2,1.8378148E2,7.205727E2,1.1234752E3,2.1929688E1,3.054657E1,1.1204063E1,1.4553925E1,3.980796E2,0E0,0E0,2.4480896E1,7.955647E2,2.8783755E2,3.5656665E2,8.378544E2,0E0,0E0,0E0,0E0,0E0,0E0,0E0,0E0,0E0,0E0,0E0,0E0,0E0,0E0,0E0,0E0,0E0,0E0,0E0,0E0],"parents":[2147483647,0,0,1,1,2,2,3,3,5,5,6,6,7,7,8,8,9,9,10,10,11,11,12,12,13,13,14,14,15,15,16,16,17,17,20,20,21,21,22,22,23,23,24,24],"right_children":[2,4,6,8,-1,10,12,14,16,18,20,22,24,26,28,30,32,34,-1,-1,36,38,40,42,44,-1,-1,-1,-1,-1,-1,-1,-1,-1,-1,-1,-1,-1,-1,-1,-1,-1,-1,-1,-1],"split_conditions":[-3.6280148E0,5.7732815E-1,-2.9504853E-1,1.108041E0,-1.0263138E-1,3.020576E0,-2.1243742E-1,5.341581E-1,3.1130207E-1,-1.7860076E0,-7.689886E-1,1.2624862E0,-1.598336E-1,1.7390503E0,-4.1740382E-1,-1.4170201E0,-2.5551286E-1,1.4113657E-1,-1.0543301E-1,-1.1835551E-1,-1.6803147E0,4.877368E-1,9.438659E-1,-5.8632034E-1,-1.645687E-2,1.0319332E-1,-1.6564886E-1,9.506284E-2,-2.1597436E-1,-3.47694E-1,-1.3240896E-1,1.0293899E-1,-1.7233185E-1,-1.2036928E-1,8.3245955E-2,1.2893832E-1,-9.426349E-2,-2.1751716E-3,7.287913E-2,-1.2544434E-1,6.158451E-2,-5.7035177E-3,-1.1162182E-1,-8.405613E-2,5.478777E-3],"split_indices":[13,9,3,6,0,6,11,6,25,13,0,12,17,15,9,11,29,22,0,0,9,10,19,29,27,0,0,0,0,0,0,0,0,0,0,0,0,0,0,0,0,0,0,0,0],"split_type":[0,0,0,0,0,0,0,0,0,0,0,0,0,0,0,0,0,0,0,0,0,0,0,0,0,0,0,0,0,0,0,0,0,0,0,0,0,0,0,0,0,0,0,0,0],"sum_hessian":[2.5725205E4,6.488355E3,1.923685E4,6.470046E3,1.830911E1,4.5347954E3,1.4702055E4,6.366681E3,1.03364784E2,4.3816523E3,1.5314297E2,6.56187E3,8.140184E3,6.2031655E3,1.6351534E2,1.4686106E1,8.867867E1,3.856707E2,3.9959817E3,4.5845158E1,1.0729782E2,6.001273E3,5.605975E2,2.6292E3,5.510984E3,6.200983E3,2.1827347E0,1.6120976E2,2.3055756E0,3.3973393E0,1.1288767E1,8.758516E1,1.0935156E0,1.7417165E2,2.1149904E2,1.0282927E2,4.4685516E0,3.72914E3,2.2721328E3,4.6112497E2,9.947248E1,3.699686E2,2.2592312E3,1.4004717E3,4.110512E3],"tree_param":{"num_deleted":"0","num_feature":"30","num_nodes":"45","size_leaf_vector":"1"}},{"base_weights":[-1.5417286E-3,1.0084041E0,-3.2433897E-1,1.0143404E0,-1.0140836E-1,-9.122938E-1,-1.5433228E-1,1.0223268E0,5.23169E-1,-9.612172E-1,4.6222147E-1,1.8300381E-1,-4.010143E-1,1.0260588E0,8.7672555E-1,-1.8675627E0,9.6857655E-1,-8.528287E-2,-1.0490731E-1,-1.1645084E-1,1.1535863E0,8.798754E-1,3.4939416E-2,-5.760397E-1,3.5556296E-1,1.0273262E-1,-1.5464027E-1,9.594611E-2,-1.331367E-1,-1.2988599E-1,-2.9269764E-1,1.0242563E-1,-1.6229749E-1,-1.193791E-1,7.7314496E-2,1.2523103E-1,-9.205976E-2,1.0960861E-1,-1.12919725E-1,-8.970002E-2,1.9441068E-2,3.7452124E-2,-7.518517E-2,6.125043E-2,-1.2442893E-1],"categories":[],"categories_nodes":[],"categories_segments":[],"categories_sizes":[],"default_left":[0,0,0,0,0,0,0,0,0,0,0,0,0,0,0,0,0,0,0,0,0,0,0,0,0,0,0,0,0,0,0,0,0,0,0,0,0,0,0,0,0,0,0,0,0],"id":27,"left_children":[1,3,5,7,-1,9,11,13,15,17,19,21,23,25,27,29,31,33,-1,-1,35,37,39,41,43,-1,-1,-1,-1,-1,-1,-1,-1,-1,-1,-1,-1,-1,-1,-1,-1,-1,-1,-1,-1],"loss_changes":[7.9419824E3,7.186914E1,1.8451403E3,2.254541E1,0E0,2.7887476E2,1.191826E3,2.2460938E0,1.0423201E2,3.0761816E2,1.6215105E2,6.242065E2,1.0956561E3,1.9971191E1,2.8959717E1,5.5050583E0,1.3456917E1,3.487973E2,0E0,0E0,2.1802261E1,4.6173724E2,7.4188776E2,1.1231133E3,6.3990173E2,0E0,0E0,0E0,0E0,0E0,0E0,0E0,0E0,0E0,0E0,0E0,0E0,0E0,0E0,0E0,0E0,0E0,0E0,0E0,0E0],"parents":[2147483647,0,0,1,1,2,2,3,3,5,5,6,6,7,7,8,8,9,9,10,10,11,11,12,12,13,13,14,14,15,15,16,16,17,17,20,20,21,21,22,22,23,23,24,24],"right_children":[2,4,6,8,-1,10,12,14,16,18,20,22,24,26,28,30,32,34,-1,-1,36,38,40,42,44,-1,-1,-1,-1,-1,-1,-1,-1,-1,-1,-1,-1,-1,-1,-1,-1,-1,-1,-1,-1],"split_conditions":[-3.6280148E0,5.7732815E-1,-2.9504853E-1,1.108041E0,-1.0140836E-1,3.020576E0,-4.259361E-1,5.341581E-1,3.1130207E-1,-1.7860076E0,-7.689886E-1,-1.1827519E0,6.224646E-1,1.7390503E0,-7.328326E-1,2.1146722E0,-2.5551286E-1,8.4213865E-1,-1.0490731E-1,-1.1645084E-1,-1.6803147E0,2.8798145E-1,-6.788413E-1,-1.4713427E0,5.199816E-1,1.0273262E-1,-1.5464027E-1,9.594611E-2,-1.331367E-1,-1.2988599E-1,-2.9269764E-1,1.0242563E-1,-1.6229749E-1,-1.193791E-1,7.7314496E-2,1.2523103E-1,-9.205976E-2,1.0960861E-1,-1.12919725E-1,-8.970002E-2,1.9441068E-2,3.7452124E-2,-7.518517E-2,6.125043E-2,-1.2442893E-1],"split_indices":[13,9,3,6,0,6,13,6,25,13,0,15,19,15,11,15,29,29,0,0,9,11,10,18,17,0,0,0,0,0,0,0,0,0,0,0,0,0,0,0,0,0,0,0,0],"split_type":[0,0,0,0,0,0,0,0,0,0,0,0,0,0,0,0,0,0,0,0,0,0,0,0,0,0,0,0,0,0,0,0,0,0,0,0,0,0,0,0,0,0,0,0,0],"sum_hessian":[2.4359326E4,5.89944E3,1.8459887E4,5.882672E3,1.6767927E1,4.139474E3,1.4320412E4,5.7874863E3,9.518552E1,3.9974912E3,1.4198291E2,6.0488735E3,8.271539E3,5.636958E3,1.5052805E2,1.4447172E1,8.073834E1,3.6457773E2,3.6329136E3,4.214187E1,9.984104E1,1.0591229E3,4.989751E3,6.7177124E3,1.5538262E3,5.6347827E3,2.1757464E0,1.4563664E2,4.891415E0,1.0849228E1,3.5979443E0,7.963221E1,1.1061331E0,1.5894179E2,2.0563594E2,9.56831E1,4.1579466E0,9.566277E2,1.0249517E2,7.2840063E2,4.26135E3,1.0483705E3,5.669342E3,1.339341E3,2.1448528E2],"tree_param":{"num_deleted":"0","num_feature":"30","num_nodes":"45","size_leaf_vector":"1"}},{"base_weights":[-1.5304249E-3,1.0035706E0,-3.0620632E-1,1.0095168E0,-1.00227535E-1,-9.043749E-1,-1.4371325E-1,1.0177374E0,5.1007056E-1,-9.180208E-2,-9.8692137E-1,1.5369925E-1,-3.8916183E-1,1.0216962E0,8.644547E-1,-1.7468483E0,9.607141E-1,-1.1745445E-1,7.570788E-1,-1.0443287E-1,4.880416E-1,2.4451159E-1,-9.0741307E-1,-9.3243265E-1,-1.4853862E-1,1.0230203E-1,-1.4496902E-1,-1.8718593E-1,9.353986E-2,-2.4935721E-1,-1.228585E-1,1.01942144E-1,-1.5317617E-1,-1.1855248E-1,1.0900902E-1,-1.1502279E-1,1.13080636E-1,-5.5959215E-4,6.69724E-2,-1.2456446E-1,5.5689584E-2,-1.1047178E-1,6.3133338E-3,-8.087705E-2,6.045721E-3],"categories":[],"categories_nodes":[],"categories_segments":[],"categories_sizes":[],"default_left":[0,0,0,0,0,0,0,0,0,0,0,0,0,0,0,0,0,0,0,0,0,0,0,0,0,0,0,0,0,0,0,0,0,0,0,0,0,0,0,0,0,0,0,0,0],"id":28,"left_children":[1,3,5,7,-1,9,11,13,15,17,19,21,23,25,27,29,31,-1,33,-1,35,37,39,41,43,-1,-1,-1,-1,-1,-1,-1,-1,-1,-1,-1,-1,-1,-1,-1,-1,-1,-1,-1,-1],"loss_changes":[7.0601255E3,6.497803E1,1.7195012E3,2.1436523E1,0E0,2.5339844E2,1.01576074E3,2.3081055E0,9.178825E1,3.222256E2,2.90989E2,6.065024E2,9.9638293E2,1.8244629E1,2.8720314E1,2.7805023E0,1.2462402E1,0E0,1.2846077E2,0E0,1.3735263E2,6.1645166E2,2.464591E2,4.013944E2,7.2921027E2,0E0,0E0,0E0,0E0,0E0,0E0,0E0,0E0,0E0,0E0,0E0,0E0,0E0,0E0,0E0,0E0,0E0,0E0,0E0,0E0],"parents":[2147483647,0,0,1,1,2,2,3,3,5,5,6,6,7,7,8,8,9,9,10,10,11,11,12,12,13,13,14,14,15,15,16,16,18,18,20,20,21,21,22,22,23,23,24,24],"right_children":[2,4,6,8,-1,10,12,14,16,18,20,22,24,26,28,30,32,-1,34,-1,36,38,40,42,44,-1,-1,-1,-1,-1,-1,-1,-1,-1,-1,-1,-1,-1,-1,-1,-1,-1,-1,-1,-1],"split_conditions":[-3.6280148E0,5.7732815E-1,-2.9504853E-1,1.108041E0,-1.00227535E-1,-1.7860076E0,-2.1243742E-1,5.341581E-1,3.1130207E-1,1.4113657E-1,3.020576E0,1.2624862E0,-1.598336E-1,1.7390503E0,9.4382966E-1,-1.4170201E0,-2.5551286E-1,-1.1745445E-1,8.4213865E-1,-1.0443287E-1,-7.689886E-1,4.877368E-1,9.438659E-1,1.2359401E0,-1.645687E-2,1.0230203E-1,-1.4496902E-1,-1.8718593E-1,9.353986E-2,-2.4935721E-1,-1.228585E-1,1.01942144E-1,-1.5317617E-1,-1.1855248E-1,1.0900902E-1,-1.1502279E-1,1.13080636E-1,-5.5959215E-4,6.69724E-2,-1.2456446E-1,5.5689584E-2,-1.1047178E-1,6.3133338E-3,-8.087705E-2,6.045721E-3],"split_indices":[13,9,3,6,0,13,11,6,25,22,6,12,17,15,10,11,29,0,29,0,0,10,19,11,27,0,0,0,0,0,0,0,0,0,0,0,0,0,0,0,0,0,0,0,0],"split_type":[0,0,0,0,0,0,0,0,0,0,0,0,0,0,0,0,0,0,0,0,0,0,0,0,0,0,0,0,0,0,0,0,0,0,0,0,0,0,0,0,0,0,0,0,0],"sum_hessian":[2.3052973E4,5.361971E3,1.7691E4,5.3466177E3,1.5353169E1,3.7781882E3,1.39128125E4,5.25902E3,8.759802E1,3.486133E2,